{"learner":{"attributes":{"best_iteration":"127","best_ntree_limit":"128","scikit_learn":"{\"use_label_encoder\": false, \"n_estimators\": 128, \"objective\": \"binary:logistic\", \"max_depth\": null, \"max_leaves\": null, \"max_bin\": null, \"grow_policy\": null, \"learning_rate\": null, \"verbosity\": null, \"booster\": null, \"tree_method\": null, \"gamma\": null, \"min_child_weight\": null, \"max_delta_step\": null, \"subsample\": null, \"sampling_method\": null, \"colsample_bytree\": null, \"colsample_bylevel\": null, \"colsample_bynode\": null, \"reg_alpha\": null, \"reg_lambda\": null, \"scale_pos_weight\": null, \"base_score\": null, \"missing\": NaN, \"num_parallel_tree\": null, \"random_state\": null, \"n_jobs\": null, \"monotone_constraints\": null, \"interaction_constraints\": null, \"importance_type\": null, \"gpu_id\": null, \"validate_parameters\": null, \"predictor\": null, \"enable_categorical\": false, \"max_cat_to_onehot\": null, \"eval_metric\": \"logloss\", \"early_stopping_rounds\": null, \"classes_\": [0, 1], \"n_classes_\": 2, \"evals_result_\": {\"validation_0\": {\"logloss\": [0.4604261172362497, 0.32756423745926316, 0.24232957741288183, 0.184870329965397, 0.1426985282418179, 0.11198975017493974, 0.08949165689793329, 0.07409603105488058, 0.06162885450127883, 0.05215502333269178, 0.04462556696786613, 0.03818418606395566, 0.0326971183997466, 0.02886838201263196, 0.02565127828441599, 0.02322393878132288, 0.02087860014240514, 0.01884210043626073, 0.01716738716152501, 0.01599125244191509, 0.01495529155972003, 0.01400983879532541, 0.01326558250595892, 0.01242737970638182, 0.01178499560325238, 0.01121925084417119, 0.01072149031168678, 0.01024814779086199, 0.00994133169010694, 0.00969486116087522, 0.00942091707388587, 0.00916888646428311, 0.0088181998983749, 0.00850062364998179, 0.00823666302361223, 0.00803947143677314, 0.00784321698821101, 0.00768855344999241, 0.00750978224407898, 0.00734579082907207, 0.0071821587188822, 0.00699195968995737, 0.00683579908901075, 0.00676505554543447, 0.00664918194857413, 0.00653308923751617, 0.00643711745990023, 0.00636700813663957, 0.00623207024284491, 0.00617958707776885, 0.00613135885168399, 0.00604934329486946, 0.00593913968936671, 0.00585478710960793, 0.00580734168333036, 0.00576216762722848, 0.00572286479315802, 0.00568331671149156, 0.00564198615868299, 0.00560556057503155, 0.00556807173600155, 0.00553139970440013, 0.00549528255724894, 0.00545961757057078, 0.00542611958200359, 0.0053945874272395, 0.00536061380961718, 0.00532869972011994, 0.00529752177909968, 0.00526800697383668, 0.00523571050669997, 0.00520569343416115, 0.0051775226410266, 0.00514890101086328, 0.00511796992440266, 0.00508980227957113, 0.00506022501205338, 0.00503196439843048, 0.00500360355495576, 0.00497863414643361, 0.00495165478981751, 0.00492810851838234, 0.00490327547614551, 0.00487822664346826, 0.00485486540417469, 0.004830708739056, 0.00480701426789835, 0.00478445213656956, 0.00476021702029844, 0.00473928111218915, 0.00471707625854958, 0.00469536003613976, 0.00467463954289594, 0.0046537571141876, 0.004633795584845, 0.00461425404322532, 0.00459357230727184, 0.00457569056210933, 0.0045583271909806, 0.00453932463121797, 0.00452217540917146, 0.00450503494275532, 0.00448780529418184, 0.00447114825213988, 0.00445496256141105, 0.00443942616563117, 0.00442260581262665, 0.00440762703584866, 0.00439190038360419, 0.00437602448003438, 0.00436214057475831, 0.00434714891104779, 0.00433325627616665, 0.00431942479120813, 0.00430423317541031, 0.00429003133010167, 0.00427677201591641, 0.00426351080249843, 0.0042496680667388, 0.00423669430242042, 0.00422432441791738, 0.0042103138818686, 0.00419850598295541, 0.00418674466611028, 0.0041753662605974, 0.00416258348227346, 0.00415065603006433, 0.00413967757647374]}}, \"_estimator_type\": \"classifier\"}"},"feature_names":[],"feature_types":[],"gradient_booster":{"model":{"gbtree_model_param":{"num_parallel_tree":"1","num_trees":"128","size_leaf_vector":"0"},"tree_info":[0,0,0,0,0,0,0,0,0,0,0,0,0,0,0,0,0,0,0,0,0,0,0,0,0,0,0,0,0,0,0,0,0,0,0,0,0,0,0,0,0,0,0,0,0,0,0,0,0,0,0,0,0,0,0,0,0,0,0,0,0,0,0,0,0,0,0,0,0,0,0,0,0,0,0,0,0,0,0,0,0,0,0,0,0,0,0,0,0,0,0,0,0,0,0,0,0,0,0,0,0,0,0,0,0,0,0,0,0,0,0,0,0,0,0,0,0,0,0,0,0,0,0,0,0,0,0,0],"trees":[{"base_weights":[5.061082E-1,1.6344647E0,-1.7319587E0,1.916914E0,-4E-1,9.52381E-2,-1.9096045E0,1.939759E0,2.2222222E-1,9.5652175E-1,-1.3548387E0,1.3846154E0,-1.3333334E0,-2.2222222E-1,-1.9534883E0,1.3684211E0,-5E-1,-0E0,-1.68E0],"categories":[],"categories_nodes":[],"categories_segments":[],"categories_sizes":[],"default_left":[1,1,1,1,1,1,1,0,0,1,1,0,0,0,0,0,0,0,0],"id":0,"left_children":[1,3,5,7,9,11,13,-1,-1,15,17,-1,-1,-1,-1,-1,-1,-1,-1],"loss_changes":[3.6458542E2,5.5787872E1,1.5924667E1,2.830719E0,1.7486675E1,1.1516483E1,2.8425446E0,0E0,0E0,4.1338677E0,3.4141932E0,0E0,0E0,0E0,0E0,0E0,0E0,0E0,0E0],"parents":[2147483647,0,0,1,1,2,2,3,3,4,4,5,5,6,6,9,9,10,10],"right_children":[2,4,6,8,10,12,14,-1,-1,16,18,-1,-1,-1,-1,-1,-1,-1,-1],"split_conditions":[1.6795E1,1.358E-1,1.611E1,6.431E-1,2.567E1,6.6259995E-2,1.907E-1,5.819277E-1,6.666667E-2,8.1030005E2,9.679E-2,4.1538465E-1,-4.0000004E-1,-6.666667E-2,-5.860465E-1,4.1052634E-1,-1.5E-1,-0E0,-5.04E-1],"split_indices":[20,27,1,10,21,7,26,0,0,23,6,0,0,0,0,0,0,0,0],"split_type":[0,0,0,0,0,0,0,0,0,0,0,0,0,0,0,0,0,0,0],"sum_hessian":[1.4225E2,9.475E1,4.75E1,8.325E1,1.15E1,4.25E0,4.325E1,8.2E1,1.25E0,4.75E0,6.75E0,2.25E0,2E0,1.25E0,4.2E1,3.75E0,1E0,1.5E0,5.25E0],"tree_param":{"num_deleted":"0","num_feature":"30","num_nodes":"19","size_leaf_vector":"0"}},{"base_weights":[3.8537896E-1,1.375401E0,-1.1305301E0,1.459094E0,-8.137597E-1,3.7853435E-1,-1.4084042E0,1.4782957E0,1.4836833E-1,-1.5213257E-1,-1.0736036E0,-4.1436535E-1,1.334564E0,-9.1148205E-2,-1.519542E0,1.5118032E0,5.230832E-1,6.2781185E-1,-1.2017235E0,1.0185846E0,-1.0765201E0,-4.7780693E-1,-1.5376776E0,5.783626E-1,1.5246263E0,1.1545604E0,-5.610647E-1],"categories":[],"categories_nodes":[],"categories_segments":[],"categories_sizes":[],"default_left":[1,1,1,1,1,1,1,1,0,0,0,1,0,1,1,1,1,0,0,0,0,0,0,0,0,0,0],"id":1,"left_children":[1,3,5,7,9,11,13,15,-1,-1,-1,17,-1,19,21,23,25,-1,-1,-1,-1,-1,-1,-1,-1,-1,-1],"loss_changes":[2.0058612E2,1.5968552E1,2.273352E1,1.7453766E0,4.5776057E-1,7.391148E0,6.437889E0,1.6681061E0,0E0,0E0,0E0,5.4269466E0,0E0,6.0817833E0,4.673004E-2,2.746582E-4,3.477028E0,0E0,0E0,0E0,0E0,0E0,0E0,0E0,0E0,0E0,0E0],"parents":[2147483647,0,0,1,1,2,2,3,3,4,4,5,5,6,6,7,7,11,11,13,13,14,14,15,15,16,16],"right_children":[2,4,6,8,10,12,14,16,-1,-1,-1,18,-1,20,22,24,26,-1,-1,-1,-1,-1,-1,-1,-1,-1,-1],"split_conditions":[1.0595E2,1.589E-1,4.8864998E-2,4.8975E1,9.826E1,1.01255E-2,2.0645E1,1.3505E-1,4.45105E-2,-4.5639772E-2,-3.220811E-1,1.936E1,4.003692E-1,7.5085E-2,8.343E-2,3.294E-3,1.9675E1,1.8834357E-1,-3.6051705E-1,3.055754E-1,-3.2295603E-1,-1.4334208E-1,-4.6130332E-1,1.7350878E-1,4.573879E-1,3.4636813E-1,-1.6831942E-1],"split_indices":[22,27,7,13,22,17,21,27,0,0,0,1,0,7,4,14,1,0,0,0,0,0,0,0,0,0,0],"split_type":[0,0,0,0,0,0,0,0,0,0,0,0,0,0,0,0,0,0,0,0,0,0,0,0,0,0,0],"sum_hessian":[1.3161821E2,7.967567E1,5.1942535E1,7.7062996E1,2.6126761E0,8.020884E0,4.3921654E1,7.582435E1,1.2386454E0,1.1838295E0,1.4288466E0,4.6942244E0,3.3266594E0,3.5589929E0,4.036266E1,7.269174E1,3.1326082E0,2.1074104E0,2.586814E0,1.6580168E0,1.9009762E0,1.1585791E0,3.9204082E1,1.6098226E0,7.108192E1,1.9385343E0,1.1940739E0],"tree_param":{"num_deleted":"0","num_feature":"30","num_nodes":"27","size_leaf_vector":"0"}},{"base_weights":[3.256514E-1,1.0681652E0,-1.1490675E0,1.2024676E0,-9.3467337E-1,-2.502259E-2,-1.3073469E0,1.2728838E0,3.521239E-1,-1.0039872E-1,-1.1417667E0,9.334842E-1,-1.0216025E0,1.2937714E0,8.194369E-2,9.086952E-1,-9.4293624E-1,1.3062876E0,3.506026E-1,1.2056019E0,-1.10598676E-1],"categories":[],"categories_nodes":[],"categories_segments":[],"categories_sizes":[],"default_left":[1,1,1,1,1,1,0,1,1,0,0,0,0,1,0,1,0,0,0,0,0],"id":2,"left_children":[1,3,5,7,9,11,-1,13,15,-1,-1,-1,-1,17,-1,19,-1,-1,-1,-1,-1],"loss_changes":[1.2568738E2,2.1598267E1,6.825001E0,3.8492813E0,8.0900955E-1,6.4722195E0,0E0,1.5332947E0,5.8095512E0,0E0,0E0,0E0,0E0,3.05748E-1,0E0,1.7418642E0,0E0,0E0,0E0,0E0,0E0],"parents":[2147483647,0,0,1,1,2,2,3,3,4,4,5,5,7,7,8,8,13,13,15,15],"right_children":[2,4,6,8,10,12,-1,14,16,-1,-1,-1,-1,18,-1,20,-1,-1,-1,-1,-1],"split_conditions":[1.6795E1,1.6029999E-1,7.214E-2,1.358E-1,6.5630005E2,1.9544998E1,-3.922041E-1,4.8975E1,2.878E1,-3.0119617E-2,-3.4253E-1,2.8004527E-1,-3.0648077E-1,1.196E-1,2.4583109E-2,1.6365E1,-2.8288087E-1,3.9188632E-1,1.05180785E-1,3.616806E-1,-3.3179604E-2],"split_indices":[20,27,6,27,23,1,0,13,21,0,0,0,0,6,0,20,0,0,0,0,0],"split_type":[0,0,0,0,0,0,0,0,0,0,0,0,0,0,0,0,0,0,0,0,0],"sum_hessian":[1.1266216E2,7.511687E1,3.7545296E1,7.0770874E1,4.345991E0,4.777224E0,3.276807E1,6.489968E1,5.871193E0,1.1595495E0,3.1864417E0,2.4674E0,2.3098238E0,6.3696186E1,1.2034963E0,4.3150663E0,1.5561264E0,6.2482025E1,1.2141616E0,3.2001297E0,1.1149366E0],"tree_param":{"num_deleted":"0","num_feature":"30","num_nodes":"21","size_leaf_vector":"0"}},{"base_weights":[2.8479645E-1,9.0446615E-1,-1.1164646E0,1.024388E0,-7.972031E-1,1.6469923E-1,-1.1723677E0,1.1484743E0,2.926575E-1,-3.670389E-2,-1.0103142E0,-2.040806E-1,-1.2025788E0,1.1758322E0,-4.5788456E-2,8.802619E-1,-6.5359855E-1,1.2140597E0,5.099524E-1,6.2453866E-2,1.0277171E0,-9.713778E-1,-7.6994024E-2,-3.8735422E-1,8.841175E-1],"categories":[],"categories_nodes":[],"categories_segments":[],"categories_sizes":[],"default_left":[1,1,1,1,1,0,1,1,1,0,0,0,0,1,0,1,1,0,1,0,0,0,0,0,0],"id":3,"left_children":[1,3,5,7,9,-1,11,13,15,-1,-1,-1,-1,17,-1,19,21,-1,23,-1,-1,-1,-1,-1,-1],"loss_changes":[8.265351E1,1.423344E1,2.2900124E0,5.280304E0,7.5555944E-1,0E0,5.7884216E-1,1.7706299E0,6.3082867E0,0E0,0E0,0E0,0E0,6.8943024E-1,0E0,7.5424147E-1,7.54112E-1,0E0,1.8584112E0,0E0,0E0,0E0,0E0,0E0,0E0],"parents":[2147483647,0,0,1,1,2,2,3,3,4,4,6,6,7,7,8,8,13,13,15,15,16,16,18,18],"right_children":[2,4,6,8,10,-1,12,14,16,-1,-1,-1,-1,18,-1,20,22,-1,24,-1,-1,-1,-1,-1,-1],"split_conditions":[1.1445E2,1.6029999E-1,1.907E-1,7.681E2,1.8685001E1,4.940977E-2,1.1605E2,1.4514999E1,1.9765E1,-1.10111665E-2,-3.0309427E-1,-6.122418E-2,-3.6077365E-1,3.335E1,-1.3736538E-2,1.43E1,9.4525E1,3.6421794E-1,2.5235E1,1.8736161E-2,3.0831516E-1,-2.9141334E-1,-2.3098208E-2,-1.1620627E-1,2.6523525E-1],"split_indices":[22,27,26,23,13,0,22,0,1,0,0,0,0,21,0,0,2,0,1,0,0,0,0,0,0],"split_type":[0,0,0,0,0,0,0,0,0,0,0,0,0,0,0,0,0,0,0,0,0,0,0,0,0],"sum_hessian":[9.302502E1,6.474696E1,2.8278053E1,6.0856247E1,3.8907132E0,1.1009437E0,2.717711E1,5.154564E1,9.310611E0,1.1082146E0,2.7824986E0,1.056927E0,2.6120182E1,5.0406376E1,1.1392611E0,5.786847E0,3.5237637E0,4.6891155E1,3.5152223E0,1.1014715E0,4.685375E0,1.8303605E0,1.693403E0,1.0240765E0,2.4911458E0],"tree_param":{"num_deleted":"0","num_feature":"30","num_nodes":"25","size_leaf_vector":"0"}},{"base_weights":[2.5210825E-1,9.5412797E-1,-7.91556E-1,1.0618403E0,-2.9968202E-1,7.298358E-1,-9.511511E-1,1.0928513E0,-2.6763026E-2,5.5414695E-1,-8.1941783E-1,2.0025496E-1,-1.0806915E0,1.1299226E0,4.7206566E-1,8.0041605E-1,-4.927746E-1,4.111952E-3,-1.1576902E0,2.694218E-1,1.1535534E0,8.1197155E-1,-2.826349E-1],"categories":[],"categories_nodes":[],"categories_segments":[],"categories_sizes":[],"default_left":[1,1,1,1,1,0,1,1,0,0,0,1,1,1,1,0,0,0,0,0,0,0,0],"id":4,"left_children":[1,3,5,7,9,-1,11,13,-1,-1,-1,15,17,19,21,-1,-1,-1,-1,-1,-1,-1,-1],"loss_changes":[5.7268974E1,6.6072693E0,8.358507E0,1.4843864E0,2.435034E0,0E0,4.5422916E0,4.3164825E-1,0E0,0E0,0E0,1.9652588E0,2.1953926E0,4.792595E-1,1.2762873E0,0E0,0E0,0E0,0E0,0E0,0E0,0E0,0E0],"parents":[2147483647,0,0,1,1,2,2,3,3,4,4,6,6,7,7,11,11,12,12,13,13,14,14],"right_children":[2,4,6,8,10,-1,12,14,-1,-1,-1,16,18,20,22,-1,-1,-1,-1,-1,-1,-1,-1],"split_conditions":[4.9230002E-2,6.9625E2,2.248E-1,4.2190002E1,1.868E1,2.1895075E-1,7.102E2,3.3269997E1,-8.028908E-3,1.6624409E-1,-2.4582537E-1,1.08500004E-1,1.5375E1,1.315E-3,1.4360001E1,2.4012482E-1,-1.478324E-1,1.2335856E-3,-3.4730706E-1,8.0826536E-2,3.4606603E-1,2.4359147E-1,-8.4790476E-2],"split_indices":[7,3,26,13,1,0,23,21,0,0,0,4,1,19,20,0,0,0,0,0,0,0,0],"split_type":[0,0,0,0,0,0,0,0,0,0,0,0,0,0,0,0,0,0,0,0,0,0,0],"sum_hessian":[7.6133644E1,4.5568096E1,3.0565546E1,4.2104126E1,3.4639702E0,2.5627024E0,2.8002844E1,4.0934135E1,1.1699923E0,1.2856609E0,2.1783094E0,2.7766848E0,2.5226158E1,3.7853493E1,3.080643E0,1.4050041E0,1.3716807E0,1.7346052E0,2.3491552E1,1.3431896E0,3.65103E1,2.071696E0,1.0089468E0],"tree_param":{"num_deleted":"0","num_feature":"30","num_nodes":"23","size_leaf_vector":"0"}},{"base_weights":[2.340965E-1,7.691879E-1,-9.15622E-1,8.9851934E-1,-6.4570063E-1,-4.833059E-2,-1.0694965E0,1.0375036E0,3.4892187E-1,-2.2735843E-2,-8.330287E-1,6.3805264E-1,-7.5553244E-1,2.0945835E-1,1.0633256E0,8.916708E-1,-4.168204E-1,3.0692813E-1,-7.724598E-1,-1.1095189E0,-1.7811753E-2],"categories":[],"categories_nodes":[],"categories_segments":[],"categories_sizes":[],"default_left":[1,1,1,1,1,1,0,1,1,0,0,0,0,0,0,0,1,0,1,0,0],"id":5,"left_children":[1,3,5,7,9,11,-1,13,15,-1,-1,-1,-1,-1,-1,-1,17,-1,19,-1,-1],"loss_changes":[3.930075E1,8.513828E0,2.6683521E0,2.7043152E0,4.727112E-1,2.4812715E0,0E0,4.5152283E-1,4.365305E0,0E0,0E0,0E0,0E0,0E0,0E0,0E0,1.4384089E0,0E0,8.485813E-1,0E0,0E0],"parents":[2147483647,0,0,1,1,2,2,3,3,4,4,5,5,7,7,8,8,16,16,18,18],"right_children":[2,4,6,8,10,12,-1,14,16,-1,-1,-1,-1,-1,-1,-1,18,-1,20,-1,-1],"split_conditions":[8.8455E2,1.6029999E-1,7.214E-2,2.1315E1,1.8685001E1,1.9544998E1,-3.2084897E-1,1.9825E-1,6.4969995E2,-6.820753E-3,-2.4990861E-1,1.914158E-1,-2.2665974E-1,6.283751E-2,3.189977E-1,2.6750126E-1,1.848E-1,9.207844E-2,3.4190002E-3,-3.3285567E-1,-5.343526E-3],"split_indices":[23,27,6,1,13,1,0,28,23,0,0,0,0,0,0,0,26,0,19,0,0],"split_type":[0,0,0,0,0,0,0,0,0,0,0,0,0,0,0,0,0,0,0,0,0],"sum_hessian":[6.1737617E1,4.2355762E1,1.9381853E1,3.9142773E1,3.21299E0,3.1185718E0,1.626328E1,3.0533577E1,8.609197E0,1.0020415E0,2.2109485E0,1.6321995E0,1.4863724E0,1.1989219E0,2.9334656E1,4.941949E0,3.6672473E0,1.2534223E0,2.413825E0,1.3435082E0,1.0703168E0],"tree_param":{"num_deleted":"0","num_feature":"30","num_nodes":"21","size_leaf_vector":"0"}},{"base_weights":[2.0630941E-1,8.1196696E-1,-6.8711144E-1,9.312763E-1,-2.4929531E-1,9.6083544E-2,-9.56872E-1,9.7293884E-1,-8.579028E-2,4.45403E-1,-6.667794E-1,8.5048515E-1,-5.637966E-1,-1.3458914E-1,-1.0227408E0,1.0525757E0,4.809083E-1,3.4718707E-2,-7.7733105E-1,8.305918E-1,-1.9380778E-1],"categories":[],"categories_nodes":[],"categories_segments":[],"categories_sizes":[],"default_left":[1,1,1,1,1,1,1,1,0,0,0,0,1,0,0,0,1,0,0,0,0],"id":6,"left_children":[1,3,5,7,9,11,13,15,-1,-1,-1,-1,17,-1,-1,-1,19,-1,-1,-1,-1],"loss_changes":[2.8225443E1,4.148678E0,4.5709133E0,1.2706394E0,1.4323791E0,3.635637E0,7.2135925E-1,5.5158615E-1,0E0,0E0,0E0,0E0,5.360565E-1,0E0,0E0,0E0,1.4826609E0,0E0,0E0,0E0,0E0],"parents":[2147483647,0,0,1,1,2,2,3,3,4,4,5,5,6,6,7,7,12,12,16,16],"right_children":[2,4,6,8,10,12,14,16,-1,-1,-1,-1,18,-1,-1,-1,20,-1,-1,-1,-1],"split_conditions":[4.9230002E-2,6.9625E2,2.374E1,4.2190002E1,1.868E1,8.1080005E2,6.8645E2,3.0145E1,-2.5737084E-2,1.336209E-1,-2.0003383E-1,2.5514555E-1,1.294E-2,-4.037674E-2,-3.0682227E-1,3.157727E-1,9.229E-2,1.0415613E-2,-2.3319933E-1,2.4917755E-1,-5.8142338E-2],"split_indices":[7,3,21,13,1,23,23,21,0,0,0,0,17,0,0,0,27,0,0,0,0],"split_type":[0,0,0,0,0,0,0,0,0,0,0,0,0,0,0,0,0,0,0,0,0],"sum_hessian":[5.013134E1,2.9931616E1,2.0199724E1,2.701681E1,2.9148061E0,5.339984E0,1.4859741E1,2.599534E1,1.0214697E0,1.0690389E0,1.8457673E0,2.356775E0,2.9832087E0,1.3277605E0,1.35319805E1,2.1393484E1,4.6018567E0,1.0046598E0,1.9785489E0,2.878829E0,1.7230281E0],"tree_param":{"num_deleted":"0","num_feature":"30","num_nodes":"21","size_leaf_vector":"0"}},{"base_weights":[1.8902598E-1,6.433894E-1,-8.163697E-1,8.2780164E-1,-2.2732025E-1,1.1168017E-1,-9.5370126E-1,-2.2911862E-1,8.9167523E-1,-5.61295E-1,4.2034435E-1,9.5787466E-1,8.860322E-2,1.0728647E-1,-8.160653E-1,1.0025129E0,3.3591244E-1],"categories":[],"categories_nodes":[],"categories_segments":[],"categories_sizes":[],"default_left":[1,1,1,1,1,0,0,0,1,1,0,1,0,0,0,0,0],"id":7,"left_children":[1,3,5,7,9,-1,-1,-1,11,13,-1,15,-1,-1,-1,-1,-1],"loss_changes":[1.961794E1,4.9001436E0,1.8207073E0,1.8536777E0,1.5150441E0,0E0,0E0,0E0,1.1508427E0,8.250669E-1,0E0,2.5659752E-1,0E0,0E0,0E0,0E0,0E0],"parents":[2147483647,0,0,1,1,2,2,3,3,4,4,8,8,9,9,11,11],"right_children":[2,4,6,8,10,-1,-1,-1,12,14,-1,16,-1,-1,-1,-1,-1],"split_conditions":[1.4545E-1,3.5435E1,7.102E2,3.299E-3,3.6585E-3,3.3504054E-2,-2.861104E-1,-6.8735585E-2,1.358E-1,8.3605E-2,1.2610331E-1,3.3269997E1,2.6580967E-2,3.2185942E-2,-2.448196E-1,3.007539E-1,1.0077374E-1],"split_indices":[27,13,23,14,19,0,0,0,27,4,0,21,0,0,0,0,0],"split_type":[0,0,0,0,0,0,0,0,0,0,0,0,0,0,0,0,0],"sum_hessian":[4.0795246E1,2.834534E1,1.2449904E1,2.3431862E1,4.91348E0,1.6289153E0,1.082099E1,1.1879361E0,2.2243925E1,3.3297942E0,1.5836859E0,2.0371855E1,1.8720701E0,1.0784802E0,2.251314E0,1.8436789E1,1.9350674E0],"tree_param":{"num_deleted":"0","num_feature":"30","num_nodes":"17","size_leaf_vector":"0"}},{"base_weights":[1.6738082E-1,7.6733726E-1,-4.9297854E-1,8.9990234E-1,-2.2948913E-1,3.5054824E-1,-7.2783154E-1,1.3674113E-1,9.4139045E-1,7.870231E-1,-3.8766438E-1,3.134965E-1,-9.171139E-1,9.90945E-1,2.8941664E-1,-3.8535732E-1,-9.789346E-1],"categories":[],"categories_nodes":[],"categories_segments":[],"categories_sizes":[],"default_left":[1,1,1,1,0,1,1,0,1,0,0,0,1,0,0,0,0],"id":8,"left_children":[1,3,5,7,-1,9,11,-1,13,-1,-1,-1,15,-1,-1,-1,-1],"loss_changes":[1.4232107E1,2.6793432E0,3.673409E0,4.0065765E-1,0E0,1.733382E0,3.0119176E0,0E0,2.20047E-1,0E0,0E0,0E0,1.5627861E-2,0E0,0E0,0E0,0E0],"parents":[2147483647,0,0,1,1,2,2,3,3,5,5,6,6,8,8,12,12],"right_children":[2,4,6,8,-1,10,12,-1,14,-1,-1,-1,16,-1,-1,-1,-1],"split_conditions":[1.11E-1,6.945E2,7.2405E2,1.9874999E-1,-6.884674E-2,1.08500004E-1,2.0045E1,4.102234E-2,3.335E1,2.3610695E-1,-1.1629932E-1,9.4048955E-2,4.8785E-2,2.972835E-1,8.6825E-2,-1.156072E-1,-2.936804E-1],"split_indices":[27,3,23,28,0,4,21,0,21,0,0,0,7,0,0,0,0],"split_type":[0,0,0,0,0,0,0,0,0,0,0,0,0,0,0,0,0],"sum_hessian":[3.3967915E1,1.7713062E1,1.625485E1,1.5719768E1,1.9932941E0,3.4327471E0,1.28221035E1,1.032019E0,1.4687749E1,2.1157002E0,1.3170469E0,1.8712535E0,1.09508505E1,1.3167047E1,1.5207018E0,1.8938855E0,9.056965E0],"tree_param":{"num_deleted":"0","num_feature":"30","num_nodes":"17","size_leaf_vector":"0"}},{"base_weights":[1.5266275E-1,5.068394E-1,-7.819964E-1,7.30064E-1,-1.543901E-1,1.3391331E-1,-9.318704E-1,8.4042805E-1,-1.2062842E-1,3.9990997E-1,-7.0218956E-1,8.928019E-2,9.0054196E-1,6.0449314E-1,-6.764763E-2,9.553339E-1,2.792691E-1],"categories":[],"categories_nodes":[],"categories_segments":[],"categories_sizes":[],"default_left":[1,1,1,1,1,0,0,1,0,1,0,0,1,0,0,0,0],"id":9,"left_children":[1,3,5,7,9,-1,-1,11,-1,13,-1,-1,15,-1,-1,-1,-1],"loss_changes":[1.0084587E1,3.3349924E0,1.2827816E0,1.6500759E0,2.2044768E0,0E0,0E0,5.845785E-1,0E0,4.0304708E-1,0E0,0E0,1.9362068E-1,0E0,0E0,0E0,0E0],"parents":[2147483647,0,0,1,1,2,2,3,3,4,4,7,7,9,9,12,12],"right_children":[2,4,6,8,10,-1,-1,12,-1,14,-1,-1,16,-1,-1,-1,-1],"split_conditions":[9.537E2,1.358E-1,6.4815E-2,3.8605E1,2.6285E1,4.0173993E-2,-2.7956113E-1,1.4895E-3,-3.6188528E-2,8.111E2,-2.1065688E-1,2.6784057E-2,3.3269997E1,1.8134795E-1,-2.029429E-2,2.8660017E-1,8.3780736E-2],"split_indices":[23,27,29,13,21,0,0,19,0,23,0,0,21,0,0,0,0],"split_type":[0,0,0,0,0,0,0,0,0,0,0,0,0,0,0,0,0],"sum_hessian":[2.8266563E1,2.0830755E1,7.4358087E0,1.549552E1,5.335235E0,1.0606229E0,6.375186E0,1.3726753E1,1.7687664E0,2.7860718E0,2.5491633E0,1.2012936E0,1.2525459E1,1.7343293E0,1.0517426E0,1.1016203E1,1.5092561E0],"tree_param":{"num_deleted":"0","num_feature":"30","num_nodes":"17","size_leaf_vector":"0"}},{"base_weights":[1.3561492E-1,7.5304085E-1,-3.4140342E-1,9.3306607E-1,-5.4259542E-2,4.6749106E-1,-5.9610873E-1,7.288056E-1,-1.555704E-1,2.9958534E-1,-7.570827E-1,-1.0291543E-1,-8.2788986E-1,-1.9386122E-1,-8.906559E-1],"categories":[],"categories_nodes":[],"categories_segments":[],"categories_sizes":[],"default_left":[1,1,1,0,0,1,1,0,0,0,1,0,1,0,0],"id":10,"left_children":[1,3,5,-1,-1,7,9,-1,-1,-1,11,-1,13,-1,-1],"loss_changes":[7.554518E0,1.6654577E0,3.3002934E0,0E0,0E0,7.764583E-1,1.8983788E0,0E0,0E0,0E0,3.831234E-1,0E0,1.8475008E-1,0E0,0E0],"parents":[2147483647,0,0,1,1,2,2,5,5,6,6,10,10,12,12],"right_children":[2,4,6,-1,-1,8,10,-1,-1,-1,12,-1,14,-1,-1],"split_conditions":[2.0795E-1,4.022E1,6.4869995E2,2.7991983E-1,-1.6277863E-2,1.07999995E-1,1.5535E1,2.1864168E-1,-4.6671122E-2,8.987561E-2,2.474E-1,-3.087463E-2,2.3525E-1,-5.8158368E-2,-2.6719677E-1],"split_indices":[26,13,23,0,0,4,1,0,0,0,28,0,10,0,0],"split_type":[0,0,0,0,0,0,0,0,0,0,0,0,0,0,0],"sum_hessian":[2.3777063E1,1.0111134E1,1.3665929E1,8.140128E0,1.9710057E0,3.0725834E0,1.0593346E1,2.0451303E0,1.0274532E0,1.482624E0,9.110722E0,1.1294558E0,7.981266E0,1.087235E0,6.894031E0],"tree_param":{"num_deleted":"0","num_feature":"30","num_nodes":"15","size_leaf_vector":"0"}},{"base_weights":[1.2505966E-1,3.9284316E-1,-7.7562356E-1,6.346111E-1,-2.3541264E-1,7.3409486E-1,-2.3280525E-1,4.8953485E-1,-6.2013143E-1,9.0640557E-1,6.23294E-2,-8.921024E-1,-1.5643005E-1,3.6123824E-1,-2.6753893E-1],"categories":[],"categories_nodes":[],"categories_segments":[],"categories_sizes":[],"default_left":[1,1,0,1,1,1,0,0,1,0,1,0,0,0,0],"id":11,"left_children":[1,3,-1,5,7,9,-1,-1,11,-1,13,-1,-1,-1,-1],"loss_changes":[5.474343E0,2.7597709E0,0E0,1.2651601E0,1.8389535E0,1.2881641E0,0E0,0E0,3.6964965E-1,0E0,4.3635276E-1,0E0,0E0,0E0,0E0],"parents":[2147483647,0,0,1,1,3,3,4,4,5,5,8,8,10,10],"right_children":[2,4,-1,6,8,10,-1,-1,12,-1,14,-1,-1,-1,-1],"split_conditions":[1.20350006E2,2.9225E1,-2.3268707E-1,4.8975E1,2.0425001E-1,3.2575E-1,-6.984158E-2,1.4686047E-1,1.972E-2,2.719217E-1,7.3695E2,-2.6763073E-1,-4.6929017E-2,1.08371474E-1,-8.0261685E-2],"split_indices":[22,21,0,13,26,25,0,0,15,0,23,0,0,0,0],"split_type":[0,0,0,0,0,0,0,0,0,0,0,0,0,0,0],"sum_hessian":[2.043408E1,1.6185719E1,4.2483616E0,1.1680619E1,4.5051E0,1.06166935E1,1.0639259E0,1.4674506E0,3.0376492E0,8.171405E0,2.4452894E0,1.3323338E0,1.7053154E0,1.2329544E0,1.2123349E0],"tree_param":{"num_deleted":"0","num_feature":"30","num_nodes":"15","size_leaf_vector":"0"}},{"base_weights":[9.909488E-2,4.898859E-1,-4.5883903E-1,-7.40512E-2,7.5666654E-1,1.14022166E-1,-7.315995E-1,5.8148867E-1,-6.7919165E-1,8.8372415E-1,1.3675708E-2,5.794887E-1,-3.43511E-1,-1.6014469E-1,-8.230106E-1],"categories":[],"categories_nodes":[],"categories_segments":[],"categories_sizes":[],"default_left":[1,1,1,1,1,1,1,0,0,0,0,0,0,0,0],"id":12,"left_children":[1,3,5,7,9,11,13,-1,-1,-1,-1,-1,-1,-1,-1],"loss_changes":[4.2879004E0,1.7775636E0,1.3635118E0,2.2140346E0,7.296457E-1,9.4607615E-1,1.6515422E-1,0E0,0E0,0E0,0E0,0E0,0E0,0E0,0E0],"parents":[2147483647,0,0,1,1,2,2,3,3,4,4,5,5,6,6],"right_children":[2,4,6,8,10,12,14,-1,-1,-1,-1,-1,-1,-1,-1],"split_conditions":[4.9230002E-2,1.20250005E-2,2.374E1,1.2455E-2,8.9365E2,8.1080005E2,5.6479998E-2,1.7444661E-1,-2.0375751E-1,2.6511726E-1,4.1027125E-3,1.7384662E-1,-1.030533E-1,-4.8043407E-2,-2.469032E-1],"split_indices":[7,15,21,16,23,23,7,0,0,0,0,0,0,0,0],"split_type":[0,0,0,0,0,0,0,0,0,0,0,0,0,0,0],"sum_hessian":[1.7635134E1,1.04427395E1,7.1923943E0,3.5856342E0,6.857105E0,2.5076687E0,4.6847258E0,1.7399051E0,1.8457291E0,5.6939735E0,1.1631315E0,1.1109279E0,1.3967408E0,1.0255344E0,3.6591914E0],"tree_param":{"num_deleted":"0","num_feature":"30","num_nodes":"15","size_leaf_vector":"0"}},{"base_weights":[8.625707E-2,3.6369765E-1,-5.847319E-1,5.931276E-1,-1.6202085E-1,-1.4767193E-2,-7.1828276E-1,6.9853884E-1,-4.4796657E-2,5.3070086E-1,-5.2863187E-1,7.8270894E-1,1.4000617E-1,-7.9470444E-1,-3.2929868E-2,8.50847E-1,2.1621762E-1],"categories":[],"categories_nodes":[],"categories_segments":[],"categories_sizes":[],"default_left":[1,1,1,1,1,0,0,1,0,0,1,1,0,0,0,0,0],"id":13,"left_children":[1,3,5,7,9,-1,-1,11,-1,-1,13,15,-1,-1,-1,-1,-1],"loss_changes":[3.254048E0,1.5645791E0,3.823681E-1,6.156759E-1,1.4194083E0,0E0,0E0,2.438662E-1,0E0,0E0,4.2667705E-1,5.982232E-2,0E0,0E0,0E0,0E0,0E0],"parents":[2147483647,0,0,1,1,2,2,3,3,4,4,7,7,10,10,11,11],"right_children":[2,4,6,8,10,-1,-1,12,-1,-1,14,16,-1,-1,-1,-1,-1],"split_conditions":[1.4545E-1,2.1435E1,7.2535E2,9.5745E2,6.4644995E2,-4.430158E-3,-2.1548484E-1,3.529E1,-1.3438998E-2,1.5921026E-1,6.708E-2,9.0885E-2,4.200185E-2,-2.3841134E-1,-9.87896E-3,2.5525412E-1,6.486529E-2],"split_indices":[27,1,23,23,23,0,0,13,0,0,5,29,0,0,0,0,0],"split_type":[0,0,0,0,0,0,0,0,0,0,0,0,0,0,0,0,0],"sum_hessian":[1.53375025E1,1.117488E1,4.1626225E0,7.6904507E0,3.4844291E0,1.0010296E0,3.161593E0,6.5183363E0,1.1721146E0,1.0509825E0,2.4334466E0,5.3158746E0,1.2024616E0,1.1909847E0,1.2424619E0,4.297061E0,1.0188136E0],"tree_param":{"num_deleted":"0","num_feature":"30","num_nodes":"17","size_leaf_vector":"0"}},{"base_weights":[7.4553356E-2,5.691018E-1,-2.6039562E-1,8.0130535E-1,-4.896032E-2,1.9727032E-1,-5.7808083E-1,5.308757E-1,-4.751427E-1,-4.2539474E-2,-7.3108304E-1,6.277954E-1,1.731116E-1],"categories":[],"categories_nodes":[],"categories_segments":[],"categories_sizes":[],"default_left":[1,1,1,0,0,1,1,1,0,0,0,0,0],"id":14,"left_children":[1,3,5,-1,-1,7,9,11,-1,-1,-1,-1,-1],"loss_changes":[2.5693805E0,9.313283E-1,1.4808013E0,0E0,0E0,1.2834923E0,4.444096E-1,1.4243364E-2,0E0,0E0,0E0,0E0,0E0],"parents":[2147483647,0,0,1,1,2,2,5,5,6,6,7,7],"right_children":[2,4,6,-1,-1,8,10,12,-1,-1,-1,-1,-1],"split_conditions":[2.0795E-1,4.022E1,2.5515E1,2.4039161E-1,-1.4688097E-2,1.7384998E1,8.9495E-2,1.4065E-1,-1.4254281E-1,-1.2761842E-2,-2.1932492E-1,1.8833862E-1,5.1933482E-2],"split_indices":[26,13,21,0,0,20,4,24,0,0,0,0,0],"split_type":[0,0,0,0,0,0,0,0,0,0,0,0,0],"sum_hessian":[1.3616426E1,5.215996E0,8.40043E0,3.576019E0,1.6399769E0,3.5972183E0,4.8032117E0,2.5450368E0,1.0521816E0,1.3513215E0,3.4518905E0,1.4086524E0,1.1363844E0],"tree_param":{"num_deleted":"0","num_feature":"30","num_nodes":"13","size_leaf_vector":"0"}},{"base_weights":[6.935202E-2,3.1417942E-1,-4.5433325E-1,5.0914794E-1,-1.0238515E-1,8.3245255E-2,-7.118989E-1,-1.20279916E-1,7.0961875E-1,2.4397232E-1,-5.299644E-1,7.982805E-1,2.0054375E-1],"categories":[],"categories_nodes":[],"categories_segments":[],"categories_sizes":[],"default_left":[1,1,1,1,1,0,0,0,1,0,0,0,0],"id":15,"left_children":[1,3,5,7,9,-1,-1,-1,11,-1,-1,-1,-1],"loss_changes":[1.8226933E0,8.2530123E-1,6.938372E-1,9.247339E-1,7.0208204E-1,0E0,0E0,0E0,7.417107E-2,0E0,0E0,0E0,0E0],"parents":[2147483647,0,0,1,1,2,2,3,3,4,4,8,8],"right_children":[2,4,6,8,10,-1,-1,-1,12,-1,-1,-1,-1],"split_conditions":[8.7485E2,1.4085001E-1,7.214E-2,1.103E-2,2.9805E1,2.4973577E-2,-2.1356969E-1,-3.6083978E-2,4.9230002E-2,7.3191695E-2,-1.5898933E-1,2.3948415E-1,6.0163125E-2],"split_indices":[23,24,6,15,21,0,0,0,7,0,0,0,0],"split_type":[0,0,0,0,0,0,0,0,0,0,0,0,0],"sum_hessian":[1.2102866E1,8.519832E0,3.5830345E0,5.6521497E0,2.867682E0,1.3798593E0,2.203175E0,1.4619639E0,4.1901855E0,1.8215549E0,1.046127E0,3.0848255E0,1.1053602E0],"tree_param":{"num_deleted":"0","num_feature":"30","num_nodes":"13","size_leaf_vector":"0"}},{"base_weights":[5.4444894E-2,5.588109E-1,-1.904151E-1,3.7999995E-2,7.112694E-1,1.8991512E-1,-5.727643E-1,6.580212E-1,-1.4600241E-1,-1.8535022E-1,-6.983284E-1,2.877847E-1,-4.2130047E-1],"categories":[],"categories_nodes":[],"categories_segments":[],"categories_sizes":[],"default_left":[1,1,1,0,0,1,1,0,1,0,0,0,0],"id":16,"left_children":[1,3,5,-1,-1,7,9,-1,11,-1,-1,-1,-1],"loss_changes":[1.5870848E0,3.0427587E-1,1.3909214E0,0E0,0E0,9.0920436E-1,9.656048E-2,0E0,5.785123E-1,0E0,0E0,0E0,0E0],"parents":[2147483647,0,0,1,1,2,2,5,5,6,6,8,8],"right_children":[2,4,6,-1,-1,8,10,-1,12,-1,-1,-1,-1],"split_conditions":[9.1695E1,1.6449999E-2,1.9765E1,1.1399999E-2,2.1338083E-1,2.24E-1,8.9865E-2,1.9740637E-1,2.333E1,-5.560507E-2,-2.0949852E-1,8.633541E-2,-1.2639014E-1],"split_indices":[22,18,1,0,0,26,4,0,13,0,0,0,0],"split_type":[0,0,0,0,0,0,0,0,0,0,0,0,0],"sum_hessian":[1.0989392E1,3.1724894E0,7.816903E0,1.0012802E0,2.171209E0,4.171111E0,3.6457918E0,1.3420572E0,2.8290539E0,1.4984941E0,2.1472976E0,1.0807537E0,1.7483003E0],"tree_param":{"num_deleted":"0","num_feature":"30","num_nodes":"13","size_leaf_vector":"0"}},{"base_weights":[5.48066E-2,3.0169383E-1,-3.5531396E-1,6.9033635E-1,1.4962803E-2,2.4044703E-1,-5.973479E-1,-4.116713E-1,3.0736125E-1,-7.082052E-1,-1.5990168E-1,5.615435E-1,-1.637863E-1],"categories":[],"categories_nodes":[],"categories_segments":[],"categories_sizes":[],"default_left":[1,1,1,0,1,0,1,0,1,0,0,0,0],"id":17,"left_children":[1,3,5,-1,7,-1,9,-1,11,-1,-1,-1,-1],"loss_changes":[1.2173866E0,8.126352E-1,8.039495E-1,0E0,7.8418577E-1,0E0,5.8591604E-2,0E0,5.351455E-1,0E0,0E0,0E0,0E0],"parents":[2147483647,0,0,1,1,2,2,4,4,6,6,8,8],"right_children":[2,4,6,-1,8,-1,10,-1,12,-1,-1,-1,-1],"split_conditions":[3.4405E1,2.0820001E-1,1.1175001E-1,2.0710091E-1,2.613E-2,7.2134115E-2,1.9209999E-1,-1.235014E-1,1.4705E-1,-2.1246158E-1,-4.7970507E-2,1.6846307E-1,-4.9135894E-2],"split_indices":[13,26,24,0,16,0,8,0,27,0,0,0,0],"split_type":[0,0,0,0,0,0,0,0,0,0,0,0,0],"sum_hessian":[9.964463E0,6.385096E0,3.579367E0,2.113201E0,4.271895E0,1.0359519E0,2.543415E0,1.5713094E0,2.7005856E0,1.535369E0,1.008046E0,1.6295737E0,1.0710119E0],"tree_param":{"num_deleted":"0","num_feature":"30","num_nodes":"13","size_leaf_vector":"0"}},{"base_weights":[4.6250828E-2,4.471097E-1,-1.9985265E-1,6.556236E-1,3.0405717E-2,1.762165E-1,-4.601647E-1,-2.460042E-1,5.6585157E-1,-1.52536E-1,-6.706952E-1,1.7690036E-1,-4.1684803E-1],"categories":[],"categories_nodes":[],"categories_segments":[],"categories_sizes":[],"default_left":[1,1,1,0,0,1,1,0,0,1,0,0,0],"id":18,"left_children":[1,3,5,-1,-1,7,9,-1,-1,11,-1,-1,-1],"loss_changes":[1.0868478E0,3.4110218E-1,7.620454E-1,0E0,0E0,7.2625273E-1,1.8185419E-1,0E0,0E0,3.4167197E-1,0E0,0E0,0E0],"parents":[2147483647,0,0,1,1,2,2,5,5,6,6,9,9],"right_children":[2,4,6,-1,-1,8,10,-1,-1,12,-1,-1,-1],"split_conditions":[2.3349998E1,8.1080005E2,9.039E-2,1.9668709E-1,9.121715E-3,5.6975E-2,3.4405E1,-7.3801264E-2,1.6975547E-1,3.462E-1,-2.0120856E-1,5.307011E-2,-1.2505442E-1],"split_indices":[21,23,4,0,0,9,13,0,0,26,0,0,0],"split_type":[0,0,0,0,0,0,0,0,0,0,0,0,0],"sum_hessian":[9.111137E0,3.1551702E0,5.9559674E0,1.7207638E0,1.4344064E0,2.568438E0,3.3875294E0,1.4095908E0,1.1588471E0,2.0770543E0,1.3104751E0,1.071838E0,1.0052162E0],"tree_param":{"num_deleted":"0","num_feature":"30","num_nodes":"13","size_leaf_vector":"0"}},{"base_weights":[4.02546E-2,2.7822578E-1,-2.941553E-1,-2.2373933E-1,5.8906764E-1,7.915734E-2,-5.009353E-1,7.347514E-2,-4.0995243E-1],"categories":[],"categories_nodes":[],"categories_segments":[],"categories_sizes":[],"default_left":[1,1,1,1,0,0,0,0,0],"id":19,"left_children":[1,3,5,7,-1,-1,-1,-1,-1],"loss_changes":[8.25173E-1,1.063487E0,3.7695304E-1,1.9661531E-1,0E0,0E0,0E0,0E0,0E0],"parents":[2147483647,0,0,1,1,2,2,3,3],"right_children":[2,4,6,8,-1,-1,-1,-1,-1],"split_conditions":[4.9230002E-2,1.20250005E-2,2.374E1,1.9795E1,1.7672029E-1,2.3747202E-2,-1.502806E-1,2.2042543E-2,-1.22985736E-1],"split_indices":[7,15,21,1,0,0,0,0,0],"split_type":[0,0,0,0,0,0,0,0,0],"sum_hessian":[8.340691E0,4.9711523E0,3.3695383E0,2.0082808E0,2.9628713E0,1.4211107E0,1.9484276E0,1.006782E0,1.0014988E0],"tree_param":{"num_deleted":"0","num_feature":"30","num_nodes":"9","size_leaf_vector":"0"}},{"base_weights":[2.5629425E-2,4.5546255E-1,-1.5314677E-1,3.8068238E-1,-3.435913E-1,1.15453884E-1,-4.9678016E-1,-1.7881836E-1,-6.583287E-1],"categories":[],"categories_nodes":[],"categories_segments":[],"categories_sizes":[],"default_left":[1,0,1,0,1,0,1,0,0],"id":20,"left_children":[1,-1,3,-1,5,-1,7,-1,-1],"loss_changes":[7.4645615E-1,0E0,8.391783E-1,0E0,4.5545745E-1,0E0,1.1000121E-1,0E0,0E0],"parents":[2147483647,0,0,2,2,4,4,6,6],"right_children":[2,-1,4,-1,6,-1,8,-1,-1],"split_conditions":[1.9415E1,1.3663878E-1,1.0825E-1,1.1420472E-1,2.179E1,3.4636166E-2,3.4405E1,-5.364551E-2,-1.9749862E-1],"split_indices":[13,0,24,0,21,0,13,0,0],"split_type":[0,0,0,0,0,0,0,0,0],"sum_hessian":[7.8062057E0,1.8384166E0,5.967789E0,1.3065434E0,4.661246E0,1.2279387E0,3.4333072E0,1.8665141E0,1.5667932E0],"tree_param":{"num_deleted":"0","num_feature":"30","num_nodes":"9","size_leaf_vector":"0"}},{"base_weights":[2.2169301E-2,3.6017123E-1,-1.9647488E-1,6.021832E-1,-8.0140546E-2,1.311951E-1,-4.3028408E-1,3.7934113E-1,-1.7895073E-1,-5.4303735E-1,-1.6895916E-1],"categories":[],"categories_nodes":[],"categories_segments":[],"categories_sizes":[],"default_left":[1,1,1,0,0,1,1,0,0,0,0],"id":21,"left_children":[1,3,5,-1,-1,7,9,-1,-1,-1,-1],"loss_changes":[6.891549E-1,4.3610784E-1,4.9528587E-1,0E0,0E0,3.1043297E-1,1.3629079E-2,0E0,0E0,0E0,0E0],"parents":[2147483647,0,0,1,1,2,2,5,5,6,6],"right_children":[2,4,6,-1,-1,8,10,-1,-1,-1,-1],"split_conditions":[2.0795E-1,4.022E1,2.5515E1,1.8065497E-1,-2.4042165E-2,1.6515E1,1.9545E-2,1.1380234E-1,-5.368522E-2,-1.629112E-1,-5.068775E-2],"split_indices":[26,13,21,0,0,20,15,0,0,0,0],"split_type":[0,0,0,0,0,0,0,0,0,0,0],"sum_hessian":[7.3676906E0,2.6396945E0,4.7279963E0,1.466191E0,1.1735033E0,2.1515725E0,2.576424E0,1.071314E0,1.0802585E0,1.0467632E0,1.5296606E0],"tree_param":{"num_deleted":"0","num_feature":"30","num_nodes":"11","size_leaf_vector":"0"}},{"base_weights":[1.900624E-2,1.599364E-1,-4.3267822E-1,-2.7598652E-1,3.4053648E-1,5.445167E-1,7.212229E-3,-4.1102574E-4,1.1230752E-2],"categories":[],"categories_nodes":[],"categories_segments":[],"categories_sizes":[],"default_left":[1,1,0,0,1,0,1,0,0],"id":22,"left_children":[1,3,-1,-1,5,-1,7,-1,-1],"loss_changes":[5.739661E-1,6.2728167E-1,0E0,0E0,3.5216433E-1,0E0,9.657048E-5,0E0,0E0],"parents":[2147483647,0,0,1,1,4,4,6,6],"right_children":[2,4,-1,-1,6,-1,8,-1,-1],"split_conditions":[1.6029999E-1,6.042E-2,-1.2980348E-1,-8.279596E-2,8.111E2,1.6335501E-1,2.562E0,-1.2330773E-4,3.3692257E-3],"split_indices":[27,5,0,0,23,0,12,0,0],"split_type":[0,0,0,0,0,0,0,0,0],"sum_hessian":[6.9295807E0,5.773958E0,1.1556227E0,1.5366676E0,4.237291E0,2.2356029E0,2.0016878E0,1.00082E0,1.0008677E0],"tree_param":{"num_deleted":"0","num_feature":"30","num_nodes":"9","size_leaf_vector":"0"}},{"base_weights":[9.607008E-3,3.221744E-1,-1.8921535E-1,5.497357E-1,-6.327132E-2,1.631944E-2,-5.2510947E-1,2.828536E-1,-3.3709696E-1],"categories":[],"categories_nodes":[],"categories_segments":[],"categories_sizes":[],"default_left":[1,1,1,0,0,1,0,0,0],"id":23,"left_children":[1,3,5,-1,-1,7,-1,-1,-1],"loss_changes":[5.3295225E-1,3.2623675E-1,3.725463E-1,0E0,0E0,4.9480364E-1,0E0,0E0,0E0],"parents":[2147483647,0,0,1,1,2,2,5,5],"right_children":[2,4,6,-1,-1,8,-1,-1,-1],"split_conditions":[2.0795E-1,4.022E1,9.537E2,1.6492072E-1,-1.8981397E-2,2.9205E1,-1.5753284E-1,8.4856085E-2,-1.0112909E-1],"split_indices":[26,13,23,0,0,21,0,0,0],"split_type":[0,0,0,0,0,0,0,0,0],"sum_hessian":[6.5949626E0,2.3228347E0,4.272128E0,1.1925422E0,1.1302925E0,3.240605E0,1.0315226E0,1.961198E0,1.2794073E0],"tree_param":{"num_deleted":"0","num_feature":"30","num_nodes":"9","size_leaf_vector":"0"}},{"base_weights":[3.8441552E-3,2.1237716E-1,-2.748111E-1,-2.4587858E-1,4.8720437E-1,5.6910655E-3,-4.3562979E-1],"categories":[],"categories_nodes":[],"categories_segments":[],"categories_sizes":[],"default_left":[1,1,1,0,0,0,0],"id":24,"left_children":[1,3,5,-1,-1,-1,-1],"loss_changes":[4.7526237E-1,7.0763844E-1,1.6067234E-1,0E0,0E0,0E0,0E0],"parents":[2147483647,0,0,1,1,2,2],"right_children":[2,4,6,-1,-1,-1,-1],"split_conditions":[4.9230002E-2,6.042E-2,8.1025E2,-7.376358E-2,1.4616132E-1,1.7073198E-3,-1.3068894E-1],"split_indices":[7,5,23,0,0,0,0],"split_type":[0,0,0,0,0,0,0],"sum_hessian":[6.17445E0,3.667619E0,2.5068307E0,1.4144512E0,2.2531679E0,1.2650046E0,1.2418262E0],"tree_param":{"num_deleted":"0","num_feature":"30","num_nodes":"7","size_leaf_vector":"0"}},{"base_weights":[-4.4926316E-3,4.0343127E-1,-1.4550996E-1,2.624728E-1,-3.1136823E-1,4.2496737E-2,-4.508723E-1],"categories":[],"categories_nodes":[],"categories_segments":[],"categories_sizes":[],"default_left":[1,0,1,0,1,0,0],"id":25,"left_children":[1,-1,3,-1,5,-1,-1],"loss_changes":[4.5599383E-1,0E0,4.787435E-1,0E0,2.4766365E-1,0E0,0E0],"parents":[2147483647,0,0,2,2,4,4],"right_children":[2,-1,4,-1,6,-1,-1],"split_conditions":[2.0224998E1,1.21029384E-1,9.1695E1,7.874185E-2,2.6714998E-1,1.2749022E-2,-1.352617E-1],"split_indices":[21,0,22,0,28,0,0],"split_type":[0,0,0,0,0,0,0],"sum_hessian":[5.9064775E0,1.0392765E0,4.867201E0,1.238411E0,3.6287901E0,1.2226919E0,2.4060981E0],"tree_param":{"num_deleted":"0","num_feature":"30","num_nodes":"7","size_leaf_vector":"0"}},{"base_weights":[8.00128E-3,3.4175795E-1,-1.362124E-1,3.0244812E-1,-3.071125E-1,-4.5849965E-3,-4.105797E-1,-1.2817919E-1,-5.142814E-1],"categories":[],"categories_nodes":[],"categories_segments":[],"categories_sizes":[],"default_left":[1,0,1,0,1,0,1,0,0],"id":26,"left_children":[1,-1,3,-1,5,-1,7,-1,-1],"loss_changes":[3.6558953E-1,0E0,4.9346948E-1,0E0,1.3401404E-1,0E0,2.8489769E-2,0E0,0E0],"parents":[2147483647,0,0,2,2,4,4,6,6],"right_children":[2,-1,4,-1,6,-1,8,-1,-1],"split_conditions":[1.9415E1,1.0252739E-1,1.0825E-1,9.073444E-2,2.3349998E1,-1.375499E-3,3.1285E1,-3.8453758E-2,-1.5428442E-1],"split_indices":[13,0,24,0,21,0,13,0,0],"split_type":[0,0,0,0,0,0,0,0,0],"sum_hessian":[5.6283555E0,1.2848947E0,4.343461E0,1.0019509E0,3.34151E0,1.1177216E0,2.2237885E0,1.1978472E0,1.0259411E0],"tree_param":{"num_deleted":"0","num_feature":"30","num_nodes":"9","size_leaf_vector":"0"}},{"base_weights":[5.231309E-3,1.9323E-1,-2.572744E-1,4.247602E-1,-1.6092403E-1,5.0887562E-2,-4.3766788E-1],"categories":[],"categories_nodes":[],"categories_segments":[],"categories_sizes":[],"default_left":[1,1,1,0,0,0,0],"id":27,"left_children":[1,3,5,-1,-1,-1,-1],"loss_changes":[3.6621022E-1,4.2160022E-1,1.9489127E-1,0E0,0E0,0E0,0E0],"parents":[2147483647,0,0,1,1,2,2],"right_children":[2,4,6,-1,-1,-1,-1],"split_conditions":[1.3714999E-1,3.6465E1,1.01399994E2,1.2742807E-1,-4.827721E-2,1.5266269E-2,-1.3130037E-1],"split_indices":[24,13,22,0,0,0,0],"split_type":[0,0,0,0,0,0,0],"sum_hessian":[5.4132195E0,3.3080182E0,2.1052015E0,1.8797532E0,1.4282649E0,1.0424006E0,1.0628008E0],"tree_param":{"num_deleted":"0","num_feature":"30","num_nodes":"7","size_leaf_vector":"0"}},{"base_weights":[-1.7192564E-3,2.6727962E-1,-1.703826E-1,1.3557647E-1,-3.697149E-1],"categories":[],"categories_nodes":[],"categories_segments":[],"categories_sizes":[],"default_left":[1,0,1,0,0],"id":28,"left_children":[1,-1,3,-1,-1],"loss_changes":[3.2532442E-1,0E0,3.185256E-1,0E0,0E0],"parents":[2147483647,0,0,2,2],"right_children":[2,-1,4,-1,-1],"split_conditions":[2.3349998E1,8.018389E-2,8.9955E-2,4.0672943E-2,-1.1091447E-1],"split_indices":[21,0,4,0,0],"split_type":[0,0,0,0,0],"sum_hessian":[5.166698E0,1.7657824E0,3.4009156E0,1.467803E0,1.9331126E0],"tree_param":{"num_deleted":"0","num_feature":"30","num_nodes":"5","size_leaf_vector":"0"}},{"base_weights":[2.1483653E-4,2.537628E-1,-1.6219787E-1,1.2156167E-1,-3.092071E-1,-3.6952034E-1,-9.8589465E-2],"categories":[],"categories_nodes":[],"categories_segments":[],"categories_sizes":[],"default_left":[1,0,1,0,1,0,0],"id":29,"left_children":[1,-1,3,-1,5,-1,-1],"loss_changes":[2.8984842E-1,0E0,2.1659696E-1,0E0,3.0621588E-3,0E0,0E0],"parents":[2147483647,0,0,2,2,4,4],"right_children":[2,-1,4,-1,6,-1,-1],"split_conditions":[2.0795E-1,7.612885E-2,1.0205E2,3.6468502E-2,3.28E-2,-1.1085611E-1,-2.957684E-2],"split_indices":[26,0,22,0,16,0,0],"split_type":[0,0,0,0,0,0,0],"sum_hessian":[5.039149E0,1.7479336E0,3.2912154E0,1.1822739E0,2.1089416E0,1.0529535E0,1.0559881E0],"tree_param":{"num_deleted":"0","num_feature":"30","num_nodes":"7","size_leaf_vector":"0"}},{"base_weights":[-4.6798014E-3,1.6900584E-1,-2.2776048E-1,3.9861527E-1,-6.4215265E-2,-1.3295418E-2,-3.2813442E-1],"categories":[],"categories_nodes":[],"categories_segments":[],"categories_sizes":[],"default_left":[1,1,1,0,0,0,0],"id":30,"left_children":[1,3,5,-1,-1,-1,-1],"loss_changes":[2.6750246E-1,2.3429297E-1,6.0504124E-2,0E0,0E0,0E0,0E0],"parents":[2147483647,0,0,1,1,2,2],"right_children":[2,4,6,-1,-1,-1,-1],"split_conditions":[2.0195E1,2.6785E-3,1.551E1,1.1958458E-1,-1.926458E-2,-3.9886255E-3,-9.844033E-2],"split_indices":[1,19,20,0,0,0,0],"split_type":[0,0,0,0,0,0,0],"sum_hessian":[4.9105487E0,2.8972301E0,2.0133185E0,1.1025656E0,1.7946645E0,1.0029063E0,1.0104121E0],"tree_param":{"num_deleted":"0","num_feature":"30","num_nodes":"7","size_leaf_vector":"0"}},{"base_weights":[-3.361584E-3,1.5730171E-1,-2.2402476E-1,3.7121862E-1,-1.2564674E-1],"categories":[],"categories_nodes":[],"categories_segments":[],"categories_sizes":[],"default_left":[1,1,0,0,0],"id":31,"left_children":[1,3,-1,-1,-1],"loss_changes":[2.4048395E-1,2.8497463E-1,0E0,0E0,0E0],"parents":[2147483647,0,0,1,1],"right_children":[2,4,-1,-1,-1],"split_conditions":[3.3004997E1,1.3785E-1,-6.720743E-2,1.11365594E-1,-3.7694022E-2],"split_indices":[13,24,0,0,0],"split_type":[0,0,0,0,0],"sum_hessian":[4.789285E0,2.9375885E0,1.8516965E0,1.4952058E0,1.4423827E0],"tree_param":{"num_deleted":"0","num_feature":"30","num_nodes":"5","size_leaf_vector":"0"}},{"base_weights":[-4.795371E-4,1.4289373E-1,-2.509852E-1,4.3133116E-1,-8.2910925E-2,1.3275789E-1,-2.749609E-1],"categories":[],"categories_nodes":[],"categories_segments":[],"categories_sizes":[],"default_left":[1,1,0,0,1,0,0],"id":32,"left_children":[1,3,-1,-1,5,-1,-1],"loss_changes":[2.3922555E-1,3.1180683E-1,0E0,0E0,1.6970916E-1,0E0,0E0],"parents":[2147483647,0,0,1,1,4,4],"right_children":[2,4,-1,-1,6,-1,-1],"split_conditions":[2.9795E1,2.333E1,-7.529557E-2,1.2939936E-1,2.605E-1,3.982737E-2,-8.2488276E-2],"split_indices":[21,13,0,0,26,0,0],"split_type":[0,0,0,0,0,0,0],"sum_hessian":[4.6621666E0,3.2383327E0,1.4238337E0,1.0222893E0,2.2160437E0,1.189259E0,1.0267845E0],"tree_param":{"num_deleted":"0","num_feature":"30","num_nodes":"7","size_leaf_vector":"0"}},{"base_weights":[2.495488E-3,-2.748749E-1,1.3370183E-1,4.0286353E-1,-1.6734503E-1],"categories":[],"categories_nodes":[],"categories_segments":[],"categories_sizes":[],"default_left":[1,0,1,0,0],"id":33,"left_children":[1,-1,3,-1,-1],"loss_changes":[2.3659797E-1,0E0,4.240071E-1,0E0,0E0],"parents":[2147483647,0,0,2,2],"right_children":[2,-1,4,-1,-1],"split_conditions":[6.042E-2,-8.2462475E-2,4.9230002E-2,1.20859064E-1,-5.0203513E-2],"split_indices":[5,0,7,0,0],"split_type":[0,0,0,0,0],"sum_hessian":[4.4913874E0,1.0906885E0,3.4006987E0,1.6168698E0,1.7838289E0],"tree_param":{"num_deleted":"0","num_feature":"30","num_nodes":"5","size_leaf_vector":"0"}},{"base_weights":[5.671167E-4,1.3569768E-1,-2.3062205E-1,-1.5718322E-1,3.821339E-1],"categories":[],"categories_nodes":[],"categories_segments":[],"categories_sizes":[],"default_left":[1,1,0,0,0],"id":34,"left_children":[1,3,-1,-1,-1],"loss_changes":[1.9880337E-1,3.4974575E-1,0E0,0E0,0E0],"parents":[2147483647,0,0,1,1],"right_children":[2,4,-1,-1,-1],"split_conditions":[6.9625E2,1.7439999E-2,-6.918662E-2,-4.7154967E-2,1.1464018E-1],"split_indices":[3,18,0,0,0],"split_type":[0,0,0,0,0],"sum_hessian":[4.361863E0,3.013507E0,1.3483564E0,1.5424881E0,1.4710188E0],"tree_param":{"num_deleted":"0","num_feature":"30","num_nodes":"5","size_leaf_vector":"0"}},{"base_weights":[8.739087E-4,1.7733201E-1,-1.934704E-1,-8.434574E-2,3.6782914E-1],"categories":[],"categories_nodes":[],"categories_segments":[],"categories_sizes":[],"default_left":[1,1,0,0,0],"id":35,"left_children":[1,3,-1,-1,-1],"loss_changes":[2.1386722E-1,1.9383135E-1,0E0,0E0,0E0],"parents":[2147483647,0,0,1,1],"right_children":[2,4,-1,-1,-1],"split_conditions":[2.8280002E-1,1.6635E-1,-5.804112E-2,-2.5303723E-2,1.10348746E-1],"split_indices":[28,8,0,0,0],"split_type":[0,0,0,0,0],"sum_hessian":[4.2359204E0,2.266003E0,1.9699175E0,1.1894035E0,1.0765992E0],"tree_param":{"num_deleted":"0","num_feature":"30","num_nodes":"5","size_leaf_vector":"0"}},{"base_weights":[6.4316746E-3,2.201445E-1,-1.2961644E-1,-3.2528457E-1,1.2503149E-1],"categories":[],"categories_nodes":[],"categories_segments":[],"categories_sizes":[],"default_left":[1,0,1,0,0],"id":36,"left_children":[1,-1,3,-1,-1],"loss_changes":[1.7841166E-1,0E0,2.2897185E-1,0E0,0E0],"parents":[2147483647,0,0,2,2],"right_children":[2,-1,4,-1,-1],"split_conditions":[2.3349998E1,6.6043355E-2,1.7715E-2,-9.758537E-2,3.750945E-2],"split_indices":[21,0,15,0,0],"split_type":[0,0,0,0,0],"sum_hessian":[4.154812E0,1.3756766E0,2.7791355E0,1.414705E0,1.3644304E0],"tree_param":{"num_deleted":"0","num_feature":"30","num_nodes":"5","size_leaf_vector":"0"}},{"base_weights":[5.602789E-3,2.2204581E-1,-1.368457E-1,9.8468915E-2,-2.628752E-1],"categories":[],"categories_nodes":[],"categories_segments":[],"categories_sizes":[],"default_left":[1,0,1,0,0],"id":37,"left_children":[1,-1,3,-1,-1],"loss_changes":[1.869663E-1,0E0,1.3506517E-1,0E0,0E0],"parents":[2147483647,0,0,2,2],"right_children":[2,-1,4,-1,-1],"split_conditions":[2.0795E-1,6.661375E-2,7.364E2,2.9540675E-2,-7.886256E-2],"split_indices":[26,0,23,0,0],"split_type":[0,0,0,0,0],"sum_hessian":[4.078502E0,1.3970214E0,2.681481E0,1.0115187E0,1.6699623E0],"tree_param":{"num_deleted":"0","num_feature":"30","num_nodes":"5","size_leaf_vector":"0"}},{"base_weights":[7.3904814E-3,1.44877E-1,-1.9391437E-1,3.307008E-1,-1.0992209E-1],"categories":[],"categories_nodes":[],"categories_segments":[],"categories_sizes":[],"default_left":[1,1,0,0,0],"id":38,"left_children":[1,3,-1,-1,-1],"loss_changes":[1.6621657E-1,2.0385346E-1,0E0,0E0,0E0],"parents":[2147483647,0,0,1,1],"right_children":[2,4,-1,-1,-1],"split_conditions":[3.4405E1,1.3765001E-1,-5.8174312E-2,9.921025E-2,-3.2976627E-2],"split_indices":[13,24,0,0,0],"split_type":[0,0,0,0,0],"sum_hessian":[3.990581E0,2.537701E0,1.4528803E0,1.2952167E0,1.2424842E0],"tree_param":{"num_deleted":"0","num_feature":"30","num_nodes":"5","size_leaf_vector":"0"}},{"base_weights":[7.5069764E-3,2.098279E-1,-1.22728534E-1,1.2511979E-1,-2.892312E-1],"categories":[],"categories_nodes":[],"categories_segments":[],"categories_sizes":[],"default_left":[1,0,1,0,0],"id":39,"left_children":[1,-1,3,-1,-1],"loss_changes":[1.5484853E-1,0E0,1.8523273E-1,0E0,0E0],"parents":[2147483647,0,0,2,2],"right_children":[2,-1,4,-1,-1],"split_conditions":[2.3349998E1,6.2948376E-2,9.039E-2,3.753594E-2,-8.6769365E-2],"split_indices":[21,0,4,0,0],"split_type":[0,0,0,0,0],"sum_hessian":[3.8994217E0,1.2877538E0,2.6116679E0,1.1493458E0,1.4623221E0],"tree_param":{"num_deleted":"0","num_feature":"30","num_nodes":"5","size_leaf_vector":"0"}},{"base_weights":[8.054192E-3,2.0833448E-1,-1.1775132E-1,1.06089555E-1,-3.1362584E-1],"categories":[],"categories_nodes":[],"categories_segments":[],"categories_sizes":[],"default_left":[1,0,1,0,0],"id":40,"left_children":[1,-1,3,-1,-1],"loss_changes":[1.4615875E-1,0E0,1.9127642E-1,0E0,0E0],"parents":[2147483647,0,0,2,2],"right_children":[2,-1,4,-1,-1],"split_conditions":[6.5344995E2,6.250034E-2,1.9765E1,3.182687E-2,-9.408776E-2],"split_indices":[23,0,1,0,0],"split_type":[0,0,0,0,0],"sum_hessian":[3.8271682E0,1.2234508E0,2.6037173E0,1.4290322E0,1.1746851E0],"tree_param":{"num_deleted":"0","num_feature":"30","num_nodes":"5","size_leaf_vector":"0"}},{"base_weights":[5.561604E-3,1.3488768E-1,-1.7959689E-1,-1.4396784E-1,3.5241506E-1],"categories":[],"categories_nodes":[],"categories_segments":[],"categories_sizes":[],"default_left":[1,1,0,0,0],"id":41,"left_children":[1,3,-1,-1,-1],"loss_changes":[1.3775001E-1,2.5469354E-1,0E0,0E0,0E0],"parents":[2147483647,0,0,1,1],"right_children":[2,4,-1,-1,-1],"split_conditions":[1.358E-1,7.1384996E-2,-5.3879067E-2,-4.3190353E-2,1.0572452E-1],"split_indices":[27,5,0,0,0],"split_type":[0,0,0,0,0],"sum_hessian":[3.7408946E0,2.362371E0,1.3785236E0,1.183441E0,1.1789298E0],"tree_param":{"num_deleted":"0","num_feature":"30","num_nodes":"5","size_leaf_vector":"0"}},{"base_weights":[6.487811E-3,1.25237E-1,-1.9314386E-1,-1.05901174E-1,3.1442708E-1],"categories":[],"categories_nodes":[],"categories_segments":[],"categories_sizes":[],"default_left":[1,1,0,0,0],"id":42,"left_children":[1,3,-1,-1,-1],"loss_changes":[1.344743E-1,1.8738513E-1,0E0,0E0,0E0],"parents":[2147483647,0,0,1,1],"right_children":[2,4,-1,-1,-1],"split_conditions":[6.9625E2,1.7439999E-2,-5.794316E-2,-3.1770352E-2,9.432813E-2],"split_indices":[3,18,0,0,0],"split_type":[0,0,0,0,0],"sum_hessian":[3.6522007E0,2.5236742E0,1.1285264E0,1.3340598E0,1.1896144E0],"tree_param":{"num_deleted":"0","num_feature":"30","num_nodes":"5","size_leaf_vector":"0"}},{"base_weights":[6.080011E-3,1.6087446E-1,-1.6563213E-1],"categories":[],"categories_nodes":[],"categories_segments":[],"categories_sizes":[],"default_left":[1,0,0],"id":43,"left_children":[1,-1,-1],"loss_changes":[1.4820963E-1,0E0,0E0],"parents":[2147483647,0,0],"right_children":[2,-1,-1],"split_conditions":[2.8280002E-1,4.826234E-2,-4.968964E-2],"split_indices":[28,0,0],"split_type":[0,0,0],"sum_hessian":[3.573486E0,1.9125146E0,1.6609714E0],"tree_param":{"num_deleted":"0","num_feature":"30","num_nodes":"3","size_leaf_vector":"0"}},{"base_weights":[4.0245936E-3,1.9814767E-1,-1.3076068E-1,5.320487E-2,-2.6343012E-1],"categories":[],"categories_nodes":[],"categories_segments":[],"categories_sizes":[],"default_left":[1,0,1,0,0],"id":44,"left_children":[1,-1,3,-1,-1],"loss_changes":[1.4457878E-1,0E0,9.405141E-2,0E0,0E0],"parents":[2147483647,0,0,2,2],"right_children":[2,-1,4,-1,-1],"split_conditions":[2.2125E1,5.9444305E-2,1.318E-2,1.5961463E-2,-7.902904E-2],"split_indices":[13,0,17,0,0],"split_type":[0,0,0,0,0],"sum_hessian":[3.5354161E0,1.2561544E0,2.2792616E0,1.205972E0,1.0732898E0],"tree_param":{"num_deleted":"0","num_feature":"30","num_nodes":"5","size_leaf_vector":"0"}},{"base_weights":[1.9702623E-3,1.844747E-1,-1.16895065E-1,-2.7326205E-1,7.461124E-2],"categories":[],"categories_nodes":[],"categories_segments":[],"categories_sizes":[],"default_left":[1,0,1,0,0],"id":45,"left_children":[1,-1,3,-1,-1],"loss_changes":[1.1873529E-1,0E0,1.19947426E-1,0E0,0E0],"parents":[2147483647,0,0,2,2],"right_children":[2,-1,4,-1,-1],"split_conditions":[2.0795E-1,5.5342413E-2,3.2535E-2,-8.197862E-2,2.2383373E-2],"split_indices":[26,0,16,0,0],"split_type":[0,0,0,0,0],"sum_hessian":[3.4792836E0,1.1545843E0,2.3246994E0,1.0447448E0,1.2799546E0],"tree_param":{"num_deleted":"0","num_feature":"30","num_nodes":"5","size_leaf_vector":"0"}},{"base_weights":[3.1410082E-4,1.7769054E-1,-1.2155383E-1,6.0539726E-2,-2.3528156E-1],"categories":[],"categories_nodes":[],"categories_segments":[],"categories_sizes":[],"default_left":[1,0,1,0,0],"id":46,"left_children":[1,-1,3,-1,-1],"loss_changes":[1.17205076E-1,0E0,8.08323E-2,0E0,0E0],"parents":[2147483647,0,0,2,2],"right_children":[2,-1,4,-1,-1],"split_conditions":[2.2125E1,5.3307164E-2,9.3855E-2,1.8161919E-2,-7.058447E-2],"split_indices":[13,0,4,0,0],"split_type":[0,0,0,0,0],"sum_hessian":[3.4228303E0,1.2074101E0,2.2154202E0,1.0315104E0,1.18391E0],"tree_param":{"num_deleted":"0","num_feature":"30","num_nodes":"5","size_leaf_vector":"0"}},{"base_weights":[3.8148346E-4,1.21803574E-1,-1.5669021E-1,2.0560098E-1,-2.376729E-2],"categories":[],"categories_nodes":[],"categories_segments":[],"categories_sizes":[],"default_left":[1,1,0,0,0],"id":47,"left_children":[1,3,-1,-1,-1],"loss_changes":[1.025992E-1,4.1876435E-2,0E0,0E0,0E0],"parents":[2147483647,0,0,1,1],"right_children":[2,4,-1,-1,-1],"split_conditions":[2.0195E1,1.2455E-2,-4.7007065E-2,6.1680295E-2,-7.1301875E-3],"split_indices":[1,17,0,0,0],"split_type":[0,0,0,0,0],"sum_hessian":[3.3788743E0,2.0323386E0,1.3465358E0,1.0281247E0,1.0042139E0],"tree_param":{"num_deleted":"0","num_feature":"30","num_nodes":"5","size_leaf_vector":"0"}},{"base_weights":[2.1084019E-3,1.1394188E-1,-1.8374579E-1,-1.0573705E-1,2.977524E-1],"categories":[],"categories_nodes":[],"categories_segments":[],"categories_sizes":[],"default_left":[1,1,0,0,0],"id":48,"left_children":[1,3,-1,-1,-1],"loss_changes":[1.11249365E-1,1.6594829E-1,0E0,0E0,0E0],"parents":[2147483647,0,0,1,1],"right_children":[2,4,-1,-1,-1],"split_conditions":[6.9625E2,1.7439999E-2,-5.512374E-2,-3.172112E-2,8.9325726E-2],"split_indices":[3,18,0,0,0],"split_type":[0,0,0,0,0],"sum_hessian":[3.3451643E0,2.330043E0,1.0151212E0,1.2549521E0,1.075091E0],"tree_param":{"num_deleted":"0","num_feature":"30","num_nodes":"5","size_leaf_vector":"0"}},{"base_weights":[2.4649212E-3,1.2775777E-1,-1.6295822E-1],"categories":[],"categories_nodes":[],"categories_segments":[],"categories_sizes":[],"default_left":[1,0,0],"id":49,"left_children":[1,-1,-1],"loss_changes":[1.09482005E-1,0E0,0E0],"parents":[2147483647,0,0],"right_children":[2,-1,-1],"split_conditions":[2.9444999E-1,3.8327333E-2,-4.888747E-2],"split_indices":[28,0,0],"split_type":[0,0,0],"sum_hessian":[3.2777853E0,1.9946853E0,1.2831001E0],"tree_param":{"num_deleted":"0","num_feature":"30","num_nodes":"3","size_leaf_vector":"0"}},{"base_weights":[-7.491954E-4,1.21167235E-1,-1.5800996E-1],"categories":[],"categories_nodes":[],"categories_segments":[],"categories_sizes":[],"default_left":[1,0,0],"id":50,"left_children":[1,-1,-1],"loss_changes":[1.00584656E-1,0E0,0E0],"parents":[2147483647,0,0],"right_children":[2,-1,-1],"split_conditions":[1.3615E-1,3.6350172E-2,-4.740299E-2],"split_indices":[24,0,0],"split_type":[0,0,0],"sum_hessian":[3.2476616E0,1.958696E0,1.2889656E0],"tree_param":{"num_deleted":"0","num_feature":"30","num_nodes":"3","size_leaf_vector":"0"}},{"base_weights":[-3.1487523E-3,1.6778831E-1,-1.2024949E-1,-2.2400631E-1,4.681596E-2],"categories":[],"categories_nodes":[],"categories_segments":[],"categories_sizes":[],"default_left":[1,0,1,0,0],"id":51,"left_children":[1,-1,3,-1,-1],"loss_changes":[1.0466627E-1,0E0,6.400548E-2,0E0,0E0],"parents":[2147483647,0,0,2,2],"right_children":[2,-1,4,-1,-1],"split_conditions":[2.2125E1,5.0336495E-2,2.0909999E-2,-6.72019E-2,1.4044789E-2],"split_indices":[13,0,15,0,0],"split_type":[0,0,0,0,0],"sum_hessian":[3.2209334E0,1.1334835E0,2.08745E0,1.0774591E0,1.0099909E0],"tree_param":{"num_deleted":"0","num_feature":"30","num_nodes":"5","size_leaf_vector":"0"}},{"base_weights":[-2.9221422E-3,1.6269654E-1,-1.0915361E-1,-2.6807877E-1,1.0467062E-1],"categories":[],"categories_nodes":[],"categories_segments":[],"categories_sizes":[],"default_left":[1,0,1,0,0],"id":52,"left_children":[1,-1,3,-1,-1],"loss_changes":[9.1395944E-2,0E0,1.350464E-1,0E0,0E0],"parents":[2147483647,0,0,2,2],"right_children":[2,-1,4,-1,-1],"split_conditions":[2.3349998E1,4.8808966E-2,1.7715E-2,-8.042364E-2,3.1401187E-2],"split_indices":[21,0,15,0,0],"split_type":[0,0,0,0,0],"sum_hessian":[3.185369E0,1.0370469E0,2.148322E0,1.0868127E0,1.0615094E0],"tree_param":{"num_deleted":"0","num_feature":"30","num_nodes":"5","size_leaf_vector":"0"}},{"base_weights":[-2.2681195E-3,1.746686E-1,-1.16280176E-1,-2.2410843E-1,5.43064E-2],"categories":[],"categories_nodes":[],"categories_segments":[],"categories_sizes":[],"default_left":[1,0,1,0,0],"id":53,"left_children":[1,-1,3,-1,-1],"loss_changes":[1.0381511E-1,0E0,6.951745E-2,0E0,0E0],"parents":[2147483647,0,0,2,2],"right_children":[2,-1,4,-1,-1],"split_conditions":[2.0795E-1,5.240058E-2,3.3675E-3,-6.7232534E-2,1.629192E-2],"split_indices":[26,0,19,0,0],"split_type":[0,0,0,0,0],"sum_hessian":[3.1394413E0,1.0217525E0,2.117689E0,1.105284E0,1.0124049E0],"tree_param":{"num_deleted":"0","num_feature":"30","num_nodes":"5","size_leaf_vector":"0"}},{"base_weights":[-1.303536E-3,1.1652566E-1,-1.6562498E-1],"categories":[],"categories_nodes":[],"categories_segments":[],"categories_sizes":[],"default_left":[1,0,0],"id":54,"left_children":[1,-1,-1],"loss_changes":[9.858732E-2,0E0,0E0],"parents":[2147483647,0,0],"right_children":[2,-1,-1],"split_conditions":[3.4405E1,3.49577E-2,-4.9687494E-2],"split_indices":[13,0,0],"split_type":[0,0,0],"sum_hessian":[3.0950482E0,1.9719203E0,1.1231279E0],"tree_param":{"num_deleted":"0","num_feature":"30","num_nodes":"3","size_leaf_vector":"0"}},{"base_weights":[-4.5554605E-3,1.20163016E-1,-1.5339784E-1],"categories":[],"categories_nodes":[],"categories_segments":[],"categories_sizes":[],"default_left":[1,0,0],"id":55,"left_children":[1,-1,-1],"loss_changes":[9.398081E-2,0E0,0E0],"parents":[2147483647,0,0],"right_children":[2,-1,-1],"split_conditions":[4.9230002E-2,3.6048908E-2,-4.6019353E-2],"split_indices":[7,0,0],"split_type":[0,0,0],"sum_hessian":[3.0697327E0,1.7750555E0,1.2946771E0],"tree_param":{"num_deleted":"0","num_feature":"30","num_nodes":"3","size_leaf_vector":"0"}},{"base_weights":[-5.6877937E-3,1.4709973E-1,-1.1125858E-1],"categories":[],"categories_nodes":[],"categories_segments":[],"categories_sizes":[],"default_left":[1,0,0],"id":56,"left_children":[1,-1,-1],"loss_changes":[8.1554815E-2,0E0,0E0],"parents":[2147483647,0,0],"right_children":[2,-1,-1],"split_conditions":[2.572E-3,4.4129923E-2,-3.3377577E-2],"split_indices":[19,0,0],"split_type":[0,0,0],"sum_hessian":[3.0414824E0,1.0820738E0,1.9594086E0],"tree_param":{"num_deleted":"0","num_feature":"30","num_nodes":"3","size_leaf_vector":"0"}},{"base_weights":[-1.2790529E-3,-1.5237357E-1,1.0693046E-1],"categories":[],"categories_nodes":[],"categories_segments":[],"categories_sizes":[],"default_left":[1,0,0],"id":57,"left_children":[1,-1,-1],"loss_changes":[8.210697E-2,0E0,0E0],"parents":[2147483647,0,0],"right_children":[2,-1,-1],"split_conditions":[1.6635E-1,-4.5712072E-2,3.2079138E-2],"split_indices":[8,0,0],"split_type":[0,0,0],"sum_hessian":[3.0253298E0,1.092175E0,1.9331548E0],"tree_param":{"num_deleted":"0","num_feature":"30","num_nodes":"3","size_leaf_vector":"0"}},{"base_weights":[-4.297189E-3,1.390376E-1,-1.23912744E-1],"categories":[],"categories_nodes":[],"categories_segments":[],"categories_sizes":[],"default_left":[1,0,0],"id":58,"left_children":[1,-1,-1],"loss_changes":[8.600196E-2,0E0,0E0],"parents":[2147483647,0,0],"right_children":[2,-1,-1],"split_conditions":[2.6819998E-1,4.171128E-2,-3.7173826E-2],"split_indices":[28,0,0],"split_type":[0,0,0],"sum_hessian":[3.011266E0,1.2959566E0,1.7153094E0],"tree_param":{"num_deleted":"0","num_feature":"30","num_nodes":"3","size_leaf_vector":"0"}},{"base_weights":[-1.8493208E-3,1.0271653E-1,-1.4688043E-1],"categories":[],"categories_nodes":[],"categories_segments":[],"categories_sizes":[],"default_left":[1,0,0],"id":59,"left_children":[1,-1,-1],"loss_changes":[7.5577036E-2,0E0,0E0],"parents":[2147483647,0,0],"right_children":[2,-1,-1],"split_conditions":[3.4405E1,3.0814959E-2,-4.406413E-2],"split_indices":[13,0,0],"split_type":[0,0,0],"sum_hessian":[2.9887097E0,1.906155E0,1.0825548E0],"tree_param":{"num_deleted":"0","num_feature":"30","num_nodes":"3","size_leaf_vector":"0"}},{"base_weights":[-4.649367E-3,1.0746525E-1,-1.4459516E-1],"categories":[],"categories_nodes":[],"categories_segments":[],"categories_sizes":[],"default_left":[1,0,0],"id":60,"left_children":[1,-1,-1],"loss_changes":[7.781464E-2,0E0,0E0],"parents":[2147483647,0,0],"right_children":[2,-1,-1],"split_conditions":[1.3615E-1,3.223958E-2,-4.337855E-2],"split_indices":[24,0,0],"split_type":[0,0,0],"sum_hessian":[2.96914E0,1.7773485E0,1.1917915E0],"tree_param":{"num_deleted":"0","num_feature":"30","num_nodes":"3","size_leaf_vector":"0"}},{"base_weights":[-6.101569E-3,1.04880564E-1,-1.4492734E-1],"categories":[],"categories_nodes":[],"categories_segments":[],"categories_sizes":[],"default_left":[1,0,0],"id":61,"left_children":[1,-1,-1],"loss_changes":[7.602844E-2,0E0,0E0],"parents":[2147483647,0,0],"right_children":[2,-1,-1],"split_conditions":[2.0195E1,3.146417E-2,-4.3478202E-2],"split_indices":[1,0,0],"split_type":[0,0,0],"sum_hessian":[2.948054E0,1.7742076E0,1.1738465E0],"tree_param":{"num_deleted":"0","num_feature":"30","num_nodes":"3","size_leaf_vector":"0"}},{"base_weights":[-7.3601096E-3,1.2463737E-1,-1.2248325E-1],"categories":[],"categories_nodes":[],"categories_segments":[],"categories_sizes":[],"default_left":[1,0,0],"id":62,"left_children":[1,-1,-1],"loss_changes":[7.495939E-2,0E0,0E0],"parents":[2147483647,0,0],"right_children":[2,-1,-1],"split_conditions":[1.0205E2,3.739121E-2,-3.674498E-2],"split_indices":[22,0,0],"split_type":[0,0,0],"sum_hessian":[2.9282398E0,1.3256439E0,1.602596E0],"tree_param":{"num_deleted":"0","num_feature":"30","num_nodes":"3","size_leaf_vector":"0"}},{"base_weights":[-4.993621E-3,-1.4821668E-1,1.00400515E-1],"categories":[],"categories_nodes":[],"categories_segments":[],"categories_sizes":[],"default_left":[1,0,0],"id":63,"left_children":[1,-1,-1],"loss_changes":[7.3821925E-2,0E0,0E0],"parents":[2147483647,0,0],"right_children":[2,-1,-1],"split_conditions":[1.6635E-1,-4.4465005E-2,3.0120155E-2],"split_indices":[8,0,0],"split_type":[0,0,0],"sum_hessian":[2.904697E0,1.0591202E0,1.8455768E0],"tree_param":{"num_deleted":"0","num_feature":"30","num_nodes":"3","size_leaf_vector":"0"}},{"base_weights":[-7.19372E-3,9.954616E-2,-1.4037263E-1],"categories":[],"categories_nodes":[],"categories_segments":[],"categories_sizes":[],"default_left":[1,0,0],"id":64,"left_children":[1,-1,-1],"loss_changes":[6.930352E-2,0E0,0E0],"parents":[2147483647,0,0],"right_children":[2,-1,-1],"split_conditions":[2.9444999E-1,2.9863847E-2,-4.211179E-2],"split_indices":[28,0,0],"split_type":[0,0,0],"sum_hessian":[2.8922272E0,1.7456594E0,1.146568E0],"tree_param":{"num_deleted":"0","num_feature":"30","num_nodes":"3","size_leaf_vector":"0"}},{"base_weights":[-8.235086E-3,1.2688424E-1,-1.06932655E-1],"categories":[],"categories_nodes":[],"categories_segments":[],"categories_sizes":[],"default_left":[1,0,0],"id":65,"left_children":[1,-1,-1],"loss_changes":[6.521636E-2,0E0,0E0],"parents":[2147483647,0,0],"right_children":[2,-1,-1],"split_conditions":[9.0440005E-2,3.8065273E-2,-3.2079797E-2],"split_indices":[4,0,0],"split_type":[0,0,0],"sum_hessian":[2.8728626E0,1.0921277E0,1.780735E0],"tree_param":{"num_deleted":"0","num_feature":"30","num_nodes":"3","size_leaf_vector":"0"}},{"base_weights":[-4.204004E-3,-1.3560641E-1,1.0635412E-1],"categories":[],"categories_nodes":[],"categories_segments":[],"categories_sizes":[],"default_left":[1,0,0],"id":66,"left_children":[1,-1,-1],"loss_changes":[7.04943E-2,0E0,0E0],"parents":[2147483647,0,0],"right_children":[2,-1,-1],"split_conditions":[1.767E-2,-4.0681925E-2,3.1906236E-2],"split_indices":[15,0,0],"split_type":[0,0,0],"sum_hessian":[2.8596876E0,1.2031442E0,1.6565434E0],"tree_param":{"num_deleted":"0","num_feature":"30","num_nodes":"3","size_leaf_vector":"0"}},{"base_weights":[-5.226794E-3,1.02271795E-1,-1.324202E-1],"categories":[],"categories_nodes":[],"categories_segments":[],"categories_sizes":[],"default_left":[1,0,0],"id":67,"left_children":[1,-1,-1],"loss_changes":[6.614447E-2,0E0,0E0],"parents":[2147483647,0,0],"right_children":[2,-1,-1],"split_conditions":[4.9230002E-2,3.068154E-2,-3.972606E-2],"split_indices":[7,0,0],"split_type":[0,0,0],"sum_hessian":[2.8470845E0,1.6491913E0,1.1978933E0],"tree_param":{"num_deleted":"0","num_feature":"30","num_nodes":"3","size_leaf_vector":"0"}},{"base_weights":[-6.04794E-3,-1.402395E-1,9.376635E-2],"categories":[],"categories_nodes":[],"categories_segments":[],"categories_sizes":[],"default_left":[1,0,0],"id":68,"left_children":[1,-1,-1],"loss_changes":[6.440163E-2,0E0,0E0],"parents":[2147483647,0,0],"right_children":[2,-1,-1],"split_conditions":[1.6635E-1,-4.2071853E-2,2.8129905E-2],"split_indices":[8,0,0],"split_type":[0,0,0],"sum_hessian":[2.826413E0,1.0328425E0,1.7935705E0],"tree_param":{"num_deleted":"0","num_feature":"30","num_nodes":"3","size_leaf_vector":"0"}},{"base_weights":[-7.902541E-3,8.911453E-2,-1.387791E-1],"categories":[],"categories_nodes":[],"categories_segments":[],"categories_sizes":[],"default_left":[1,0,0],"id":69,"left_children":[1,-1,-1],"loss_changes":[6.081159E-2,0E0,0E0],"parents":[2147483647,0,0],"right_children":[2,-1,-1],"split_conditions":[3.4405E1,2.6734361E-2,-4.1633733E-2],"split_indices":[13,0,0],"split_type":[0,0,0],"sum_hessian":[2.815339E0,1.8000675E0,1.0152714E0],"tree_param":{"num_deleted":"0","num_feature":"30","num_nodes":"3","size_leaf_vector":"0"}},{"base_weights":[-9.491308E-3,1.18743405E-1,-1.1780369E-1],"categories":[],"categories_nodes":[],"categories_segments":[],"categories_sizes":[],"default_left":[1,0,0],"id":70,"left_children":[1,-1,-1],"loss_changes":[6.676298E-2,0E0,0E0],"parents":[2147483647,0,0],"right_children":[2,-1,-1],"split_conditions":[1.11E-1,3.562302E-2,-3.534111E-2],"split_indices":[27,0,0],"split_type":[0,0,0],"sum_hessian":[2.7996264E0,1.2378219E0,1.5618044E0],"tree_param":{"num_deleted":"0","num_feature":"30","num_nodes":"3","size_leaf_vector":"0"}},{"base_weights":[-6.585495E-3,9.55632E-2,-1.340281E-1],"categories":[],"categories_nodes":[],"categories_segments":[],"categories_sizes":[],"default_left":[1,0,0],"id":71,"left_children":[1,-1,-1],"loss_changes":[6.2018164E-2,0E0,0E0],"parents":[2147483647,0,0],"right_children":[2,-1,-1],"split_conditions":[2.0195E1,2.8668962E-2,-4.0208433E-2],"split_indices":[1,0,0],"split_type":[0,0,0],"sum_hessian":[2.780123E0,1.6820564E0,1.0980666E0],"tree_param":{"num_deleted":"0","num_feature":"30","num_nodes":"3","size_leaf_vector":"0"}},{"base_weights":[-7.7043143E-3,-1.05701655E-1,1.1676436E-1],"categories":[],"categories_nodes":[],"categories_segments":[],"categories_sizes":[],"default_left":[1,0,0],"id":72,"left_children":[1,-1,-1],"loss_changes":[5.825046E-2,0E0,0E0],"parents":[2147483647,0,0],"right_children":[2,-1,-1],"split_conditions":[1.7575E-2,-3.1710498E-2,3.502931E-2],"split_indices":[18,0,0],"split_type":[0,0,0],"sum_hessian":[2.763714E0,1.630644E0,1.1330701E0],"tree_param":{"num_deleted":"0","num_feature":"30","num_nodes":"3","size_leaf_vector":"0"}},{"base_weights":[-4.502541E-3,1.18012935E-1,-1.06264696E-1],"categories":[],"categories_nodes":[],"categories_segments":[],"categories_sizes":[],"default_left":[1,0,0],"id":73,"left_children":[1,-1,-1],"loss_changes":[5.9329506E-2,0E0,0E0],"parents":[2147483647,0,0],"right_children":[2,-1,-1],"split_conditions":[2.6819998E-1,3.540388E-2,-3.187941E-2],"split_indices":[28,0,0],"split_type":[0,0,0],"sum_hessian":[2.752888E0,1.1766176E0,1.5762702E0],"tree_param":{"num_deleted":"0","num_feature":"30","num_nodes":"3","size_leaf_vector":"0"}},{"base_weights":[-2.1961252E-3,1.2795638E-1,-1.06087565E-1],"categories":[],"categories_nodes":[],"categories_segments":[],"categories_sizes":[],"default_left":[1,0,0],"id":74,"left_children":[1,-1,-1],"loss_changes":[6.410203E-2,0E0,0E0],"parents":[2147483647,0,0],"right_children":[2,-1,-1],"split_conditions":[2.333E1,3.8386915E-2,-3.1826273E-2],"split_indices":[13,0,0],"split_type":[0,0,0],"sum_hessian":[2.7367594E0,1.1120175E0,1.624742E0],"tree_param":{"num_deleted":"0","num_feature":"30","num_nodes":"3","size_leaf_vector":"0"}},{"base_weights":[2.5413852E-4,9.8406985E-2,-1.2565622E-1],"categories":[],"categories_nodes":[],"categories_segments":[],"categories_sizes":[],"default_left":[1,0,0],"id":75,"left_children":[1,-1,-1],"loss_changes":[5.8352653E-2,0E0,0E0],"parents":[2147483647,0,0],"right_children":[2,-1,-1],"split_conditions":[1.3615E-1,2.9522097E-2,-3.769687E-2],"split_indices":[24,0,0],"split_type":[0,0,0],"sum_hessian":[2.7211113E0,1.651853E0,1.0692583E0],"tree_param":{"num_deleted":"0","num_feature":"30","num_nodes":"3","size_leaf_vector":"0"}},{"base_weights":[-2.0265614E-3,-1.2589946E-1,1.0322839E-1],"categories":[],"categories_nodes":[],"categories_segments":[],"categories_sizes":[],"default_left":[1,0,0],"id":76,"left_children":[1,-1,-1],"loss_changes":[6.1297927E-2,0E0,0E0],"parents":[2147483647,0,0],"right_children":[2,-1,-1],"split_conditions":[1.767E-2,-3.776984E-2,3.0968519E-2],"split_indices":[15,0,0],"split_type":[0,0,0],"sum_hessian":[2.7046056E0,1.15232E0,1.5522857E0],"tree_param":{"num_deleted":"0","num_feature":"30","num_nodes":"3","size_leaf_vector":"0"}},{"base_weights":[-3.2552353E-3,1.0028655E-1,-1.2381891E-1],"categories":[],"categories_nodes":[],"categories_segments":[],"categories_sizes":[],"default_left":[1,0,0],"id":77,"left_children":[1,-1,-1],"loss_changes":[5.8524877E-2,0E0,0E0],"parents":[2147483647,0,0],"right_children":[2,-1,-1],"split_conditions":[1.275E-2,3.0085966E-2,-3.7145674E-2],"split_indices":[17,0,0],"split_type":[0,0,0],"sum_hessian":[2.693512E0,1.5395288E0,1.1539831E0],"tree_param":{"num_deleted":"0","num_feature":"30","num_nodes":"3","size_leaf_vector":"0"}},{"base_weights":[-4.202066E-3,1.1570508E-1,-1.08843975E-1],"categories":[],"categories_nodes":[],"categories_segments":[],"categories_sizes":[],"default_left":[1,0,0],"id":78,"left_children":[1,-1,-1],"loss_changes":[5.8764208E-2,0E0,0E0],"parents":[2147483647,0,0],"right_children":[2,-1,-1],"split_conditions":[1.0205E2,3.4711525E-2,-3.2653194E-2],"split_indices":[22,0,0],"split_type":[0,0,0],"sum_hessian":[2.6797044E0,1.1994984E0,1.4802061E0],"tree_param":{"num_deleted":"0","num_feature":"30","num_nodes":"3","size_leaf_vector":"0"}},{"base_weights":[-2.3698402E-3,-1.16430275E-1,9.495634E-2],"categories":[],"categories_nodes":[],"categories_segments":[],"categories_sizes":[],"default_left":[1,0,0],"id":79,"left_children":[1,-1,-1],"loss_changes":[5.17004E-2,0E0,0E0],"parents":[2147483647,0,0],"right_children":[2,-1,-1],"split_conditions":[1.767E-2,-3.4929086E-2,2.8486902E-2],"split_indices":[15,0,0],"split_type":[0,0,0],"sum_hessian":[2.6613247E0,1.1349463E0,1.5263784E0],"tree_param":{"num_deleted":"0","num_feature":"30","num_nodes":"3","size_leaf_vector":"0"}},{"base_weights":[-3.420084E-3,9.474575E-2,-1.2575875E-1],"categories":[],"categories_nodes":[],"categories_segments":[],"categories_sizes":[],"default_left":[1,0,0],"id":80,"left_children":[1,-1,-1],"loss_changes":[5.5773146E-2,0E0,0E0],"parents":[2147483647,0,0],"right_children":[2,-1,-1],"split_conditions":[1.3615E-1,2.8423725E-2,-3.7727628E-2],"split_indices":[24,0,0],"split_type":[0,0,0],"sum_hessian":[2.6519525E0,1.5964719E0,1.0554805E0],"tree_param":{"num_deleted":"0","num_feature":"30","num_nodes":"3","size_leaf_vector":"0"}},{"base_weights":[-4.966531E-3,9.0816356E-2,-1.1474754E-1],"categories":[],"categories_nodes":[],"categories_segments":[],"categories_sizes":[],"default_left":[1,0,0],"id":81,"left_children":[1,-1,-1],"loss_changes":[4.8658296E-2,0E0,0E0],"parents":[2147483647,0,0],"right_children":[2,-1,-1],"split_conditions":[1.275E-2,2.7244909E-2,-3.4424264E-2],"split_indices":[17,0,0],"split_type":[0,0,0],"sum_hessian":[2.6364076E0,1.5002252E0,1.1361824E0],"tree_param":{"num_deleted":"0","num_feature":"30","num_nodes":"3","size_leaf_vector":"0"}},{"base_weights":[-5.4657175E-3,1.0769639E-1,-1.0349439E-1],"categories":[],"categories_nodes":[],"categories_segments":[],"categories_sizes":[],"default_left":[1,0,0],"id":82,"left_children":[1,-1,-1],"loss_changes":[5.135846E-2,0E0,0E0],"parents":[2147483647,0,0],"right_children":[2,-1,-1],"split_conditions":[1.0205E2,3.2308917E-2,-3.1048318E-2],"split_indices":[22,0,0],"split_type":[0,0,0],"sum_hessian":[2.62499E0,1.1726675E0,1.4523225E0],"tree_param":{"num_deleted":"0","num_feature":"30","num_nodes":"3","size_leaf_vector":"0"}},{"base_weights":[-3.4754216E-3,9.033474E-2,-1.23327E-1],"categories":[],"categories_nodes":[],"categories_segments":[],"categories_sizes":[],"default_left":[1,0,0],"id":83,"left_children":[1,-1,-1],"loss_changes":[5.1715285E-2,0E0,0E0],"parents":[2147483647,0,0],"right_children":[2,-1,-1],"split_conditions":[2.0195E1,2.7100423E-2,-3.69981E-2],"split_indices":[1,0,0],"split_type":[0,0,0],"sum_hessian":[2.608779E0,1.6015179E0,1.007261E0],"tree_param":{"num_deleted":"0","num_feature":"30","num_nodes":"3","size_leaf_vector":"0"}},{"base_weights":[-5.199726E-3,-9.625921E-2,1.09902136E-1],"categories":[],"categories_nodes":[],"categories_segments":[],"categories_sizes":[],"default_left":[1,0,0],"id":84,"left_children":[1,-1,-1],"loss_changes":[4.8255432E-2,0E0,0E0],"parents":[2147483647,0,0],"right_children":[2,-1,-1],"split_conditions":[1.7575E-2,-2.8877763E-2,3.297064E-2],"split_indices":[18,0,0],"split_type":[0,0,0],"sum_hessian":[2.5946877E0,1.5400368E0,1.054651E0],"tree_param":{"num_deleted":"0","num_feature":"30","num_nodes":"3","size_leaf_vector":"0"}},{"base_weights":[-2.4873114E-3,9.0469085E-2,-1.1970187E-1],"categories":[],"categories_nodes":[],"categories_segments":[],"categories_sizes":[],"default_left":[1,0,0],"id":85,"left_children":[1,-1,-1],"loss_changes":[4.989929E-2,0E0,0E0],"parents":[2147483647,0,0],"right_children":[2,-1,-1],"split_conditions":[2.9444999E-1,2.7140727E-2,-3.591056E-2],"split_indices":[28,0,0],"split_type":[0,0,0],"sum_hessian":[2.5857682E0,1.569366E0,1.0164022E0],"tree_param":{"num_deleted":"0","num_feature":"30","num_nodes":"3","size_leaf_vector":"0"}},{"base_weights":[-4.205799E-3,1.1235009E-1,-9.591447E-2],"categories":[],"categories_nodes":[],"categories_segments":[],"categories_sizes":[],"default_left":[1,0,0],"id":86,"left_children":[1,-1,-1],"loss_changes":[4.8952095E-2,0E0,0E0],"parents":[2147483647,0,0],"right_children":[2,-1,-1],"split_conditions":[2.333E1,3.370503E-2,-2.8774342E-2],"split_indices":[13,0,0],"split_type":[0,0,0],"sum_hessian":[2.5714688E0,1.033227E0,1.5382419E0],"tree_param":{"num_deleted":"0","num_feature":"30","num_nodes":"3","size_leaf_vector":"0"}},{"base_weights":[-1.5446192E-3,-1.10845275E-1,9.212599E-2],"categories":[],"categories_nodes":[],"categories_segments":[],"categories_sizes":[],"default_left":[1,0,0],"id":87,"left_children":[1,-1,-1],"loss_changes":[4.6655867E-2,0E0,0E0],"parents":[2147483647,0,0],"right_children":[2,-1,-1],"split_conditions":[1.767E-2,-3.3253584E-2,2.7637798E-2],"split_indices":[15,0,0],"split_type":[0,0,0],"sum_hessian":[2.559603E0,1.0966326E0,1.4629705E0],"tree_param":{"num_deleted":"0","num_feature":"30","num_nodes":"3","size_leaf_vector":"0"}},{"base_weights":[-2.6577313E-3,9.375414E-2,-1.1691977E-1],"categories":[],"categories_nodes":[],"categories_segments":[],"categories_sizes":[],"default_left":[1,0,0],"id":88,"left_children":[1,-1,-1],"loss_changes":[5.008113E-2,0E0,0E0],"parents":[2147483647,0,0],"right_children":[2,-1,-1],"split_conditions":[4.9230002E-2,2.8126244E-2,-3.5075933E-2],"split_indices":[7,0,0],"split_type":[0,0,0],"sum_hessian":[2.5510755E0,1.4809568E0,1.0701185E0],"tree_param":{"num_deleted":"0","num_feature":"30","num_nodes":"3","size_leaf_vector":"0"}},{"base_weights":[-3.8344958E-3,8.370301E-2,-1.1283048E-1],"categories":[],"categories_nodes":[],"categories_segments":[],"categories_sizes":[],"default_left":[1,0,0],"id":89,"left_children":[1,-1,-1],"loss_changes":[4.3175943E-2,0E0,0E0],"parents":[2147483647,0,0],"right_children":[2,-1,-1],"split_conditions":[1.3615E-1,2.5110904E-2,-3.3849146E-2],"split_indices":[24,0,0],"split_type":[0,0,0],"sum_hessian":[2.5353587E0,1.5347862E0,1.0005724E0],"tree_param":{"num_deleted":"0","num_feature":"30","num_nodes":"3","size_leaf_vector":"0"}},{"base_weights":[-5.1762294E-3,-1.1239208E-1,8.94668E-2],"categories":[],"categories_nodes":[],"categories_segments":[],"categories_sizes":[],"default_left":[1,0,0],"id":90,"left_children":[1,-1,-1],"loss_changes":[4.5804143E-2,0E0,0E0],"parents":[2147483647,0,0],"right_children":[2,-1,-1],"split_conditions":[1.767E-2,-3.3717625E-2,2.6840042E-2],"split_indices":[15,0,0],"split_type":[0,0,0],"sum_hessian":[2.5230079E0,1.0950029E0,1.428005E0],"tree_param":{"num_deleted":"0","num_feature":"30","num_nodes":"3","size_leaf_vector":"0"}},{"base_weights":[-5.58334E-3,8.584863E-2,-1.142631E-1],"categories":[],"categories_nodes":[],"categories_segments":[],"categories_sizes":[],"default_left":[1,0,0],"id":91,"left_children":[1,-1,-1],"loss_changes":[4.473592E-2,0E0,0E0],"parents":[2147483647,0,0],"right_children":[2,-1,-1],"split_conditions":[1.318E-2,2.575459E-2,-3.4278933E-2],"split_indices":[17,0,0],"split_type":[0,0,0],"sum_hessian":[2.5148716E0,1.479907E0,1.0349644E0],"tree_param":{"num_deleted":"0","num_feature":"30","num_nodes":"3","size_leaf_vector":"0"}},{"base_weights":[-6.3527264E-3,-9.262808E-2,1.0323945E-1],"categories":[],"categories_nodes":[],"categories_segments":[],"categories_sizes":[],"default_left":[1,0,0],"id":92,"left_children":[1,-1,-1],"loss_changes":[4.269736E-2,0E0,0E0],"parents":[2147483647,0,0],"right_children":[2,-1,-1],"split_conditions":[1.7575E-2,-2.7788425E-2,3.0971834E-2],"split_indices":[18,0,0],"split_type":[0,0,0],"sum_hessian":[2.5044026E0,1.4878782E0,1.0165244E0],"tree_param":{"num_deleted":"0","num_feature":"30","num_nodes":"3","size_leaf_vector":"0"}},{"base_weights":[-3.5303151E-3,1.0331453E-1,-9.320133E-2],"categories":[],"categories_nodes":[],"categories_segments":[],"categories_sizes":[],"default_left":[1,0,0],"id":93,"left_children":[1,-1,-1],"loss_changes":[4.3128483E-2,0E0,0E0],"parents":[2147483647,0,0],"right_children":[2,-1,-1],"split_conditions":[2.6819998E-1,3.099436E-2,-2.7960401E-2],"split_indices":[28,0,0],"split_type":[0,0,0],"sum_hessian":[2.4964862E0,1.0697302E0,1.426756E0],"tree_param":{"num_deleted":"0","num_feature":"30","num_nodes":"3","size_leaf_vector":"0"}},{"base_weights":[-1.5909271E-3,1.00790866E-1,-9.1406316E-2],"categories":[],"categories_nodes":[],"categories_segments":[],"categories_sizes":[],"default_left":[1,0,0],"id":94,"left_children":[1,-1,-1],"loss_changes":[4.1255854E-2,0E0,0E0],"parents":[2147483647,0,0],"right_children":[2,-1,-1],"split_conditions":[1.0205E2,3.0237261E-2,-2.7421895E-2],"split_indices":[22,0,0],"split_type":[0,0,0],"sum_hessian":[2.4846468E0,1.1039915E0,1.3806553E0],"tree_param":{"num_deleted":"0","num_feature":"30","num_nodes":"3","size_leaf_vector":"0"}},{"base_weights":[-2.881206E-4,8.6117335E-2,-1.04758486E-1],"categories":[],"categories_nodes":[],"categories_segments":[],"categories_sizes":[],"default_left":[1,0,0],"id":95,"left_children":[1,-1,-1],"loss_changes":[4.035615E-2,0E0,0E0],"parents":[2147483647,0,0],"right_children":[2,-1,-1],"split_conditions":[1.318E-2,2.5835201E-2,-3.1427547E-2],"split_indices":[17,0,0],"split_type":[0,0,0],"sum_hessian":[2.4712846E0,1.4487379E0,1.0225468E0],"tree_param":{"num_deleted":"0","num_feature":"30","num_nodes":"3","size_leaf_vector":"0"}},{"base_weights":[-1.8120969E-3,-9.503655E-2,1.0090967E-1],"categories":[],"categories_nodes":[],"categories_segments":[],"categories_sizes":[],"default_left":[1,0,0],"id":96,"left_children":[1,-1,-1],"loss_changes":[4.274139E-2,0E0,0E0],"parents":[2147483647,0,0],"right_children":[2,-1,-1],"split_conditions":[1.7985001E-1,-2.8510967E-2,3.0272903E-2],"split_indices":[8,0,0],"split_type":[0,0,0],"sum_hessian":[2.4618483E0,1.3298068E0,1.1320415E0],"tree_param":{"num_deleted":"0","num_feature":"30","num_nodes":"3","size_leaf_vector":"0"}},{"base_weights":[-7.456775E-4,9.805191E-2,-8.4634565E-2],"categories":[],"categories_nodes":[],"categories_segments":[],"categories_sizes":[],"default_left":[1,0,0],"id":97,"left_children":[1,-1,-1],"loss_changes":[3.6929123E-2,0E0,0E0],"parents":[2147483647,0,0],"right_children":[2,-1,-1],"split_conditions":[2.6819998E-1,2.9415576E-2,-2.539037E-2],"split_indices":[28,0,0],"split_type":[0,0,0],"sum_hessian":[2.4544494E0,1.0495468E0,1.4049025E0],"tree_param":{"num_deleted":"0","num_feature":"30","num_nodes":"3","size_leaf_vector":"0"}},{"base_weights":[6.631931E-4,-9.627514E-2,8.3900094E-2],"categories":[],"categories_nodes":[],"categories_segments":[],"categories_sizes":[],"default_left":[1,0,0],"id":98,"left_children":[1,-1,-1],"loss_changes":[3.58671E-2,0E0,0E0],"parents":[2147483647,0,0],"right_children":[2,-1,-1],"split_conditions":[1.767E-2,-2.8882544E-2,2.517003E-2],"split_indices":[15,0,0],"split_type":[0,0,0],"sum_hessian":[2.4440615E0,1.0567371E0,1.3873243E0],"tree_param":{"num_deleted":"0","num_feature":"30","num_nodes":"3","size_leaf_vector":"0"}},{"base_weights":[-6.0632115E-4,8.608238E-2,-1.0261243E-1],"categories":[],"categories_nodes":[],"categories_segments":[],"categories_sizes":[],"default_left":[1,0,0],"id":99,"left_children":[1,-1,-1],"loss_changes":[3.9229322E-2,0E0,0E0],"parents":[2147483647,0,0],"right_children":[2,-1,-1],"split_conditions":[4.9230002E-2,2.5824714E-2,-3.078373E-2],"split_indices":[7,0,0],"split_type":[0,0,0],"sum_hessian":[2.437405E0,1.4020201E0,1.0353849E0],"tree_param":{"num_deleted":"0","num_feature":"30","num_nodes":"3","size_leaf_vector":"0"}},{"base_weights":[-1.8705955E-3,-8.6875774E-2,9.225672E-2],"categories":[],"categories_nodes":[],"categories_segments":[],"categories_sizes":[],"default_left":[1,0,0],"id":100,"left_children":[1,-1,-1],"loss_changes":[3.5418082E-2,0E0,0E0],"parents":[2147483647,0,0],"right_children":[2,-1,-1],"split_conditions":[1.7985001E-1,-2.6062733E-2,2.7677016E-2],"split_indices":[8,0,0],"split_type":[0,0,0],"sum_hessian":[2.424841E0,1.314643E0,1.1101978E0],"tree_param":{"num_deleted":"0","num_feature":"30","num_nodes":"3","size_leaf_vector":"0"}},{"base_weights":[-8.2673895E-4,9.091131E-2,-8.815248E-2],"categories":[],"categories_nodes":[],"categories_segments":[],"categories_sizes":[],"default_left":[1,0,0],"id":101,"left_children":[1,-1,-1],"loss_changes":[3.5402674E-2,0E0,0E0],"parents":[2147483647,0,0],"right_children":[2,-1,-1],"split_conditions":[1.8785E1,2.7273392E-2,-2.6445746E-2],"split_indices":[1,0,0],"split_type":[0,0,0],"sum_hessian":[2.4188368E0,1.1595933E0,1.2592436E0],"tree_param":{"num_deleted":"0","num_feature":"30","num_nodes":"3","size_leaf_vector":"0"}},{"base_weights":[-3.254744E-4,8.1644356E-2,-9.872317E-2],"categories":[],"categories_nodes":[],"categories_segments":[],"categories_sizes":[],"default_left":[1,0,0],"id":102,"left_children":[1,-1,-1],"loss_changes":[3.5552654E-2,0E0,0E0],"parents":[2147483647,0,0],"right_children":[2,-1,-1],"split_conditions":[1.318E-2,2.4493309E-2,-2.9616954E-2],"split_indices":[17,0,0],"split_type":[0,0,0],"sum_hessian":[2.4085894E0,1.4068662E0,1.0017232E0],"tree_param":{"num_deleted":"0","num_feature":"30","num_nodes":"3","size_leaf_vector":"0"}},{"base_weights":[-1.7294262E-3,8.627392E-2,-9.054614E-2],"categories":[],"categories_nodes":[],"categories_segments":[],"categories_sizes":[],"default_left":[1,0,0],"id":103,"left_children":[1,-1,-1],"loss_changes":[3.4388438E-2,0E0,0E0],"parents":[2147483647,0,0],"right_children":[2,-1,-1],"split_conditions":[7.681E2,2.5882179E-2,-2.7163843E-2],"split_indices":[23,0,0],"split_type":[0,0,0],"sum_hessian":[2.400217E0,1.2200097E0,1.1802075E0],"tree_param":{"num_deleted":"0","num_feature":"30","num_nodes":"3","size_leaf_vector":"0"}},{"base_weights":[-1.5843923E-3,8.2581766E-2,-9.205884E-2],"categories":[],"categories_nodes":[],"categories_segments":[],"categories_sizes":[],"default_left":[1,0,0],"id":104,"left_children":[1,-1,-1],"loss_changes":[3.3410512E-2,0E0,0E0],"parents":[2147483647,0,0],"right_children":[2,-1,-1],"split_conditions":[2.8280002E-1,2.477453E-2,-2.7617652E-2],"split_indices":[28,0,0],"split_type":[0,0,0],"sum_hessian":[2.3891683E0,1.2829282E0,1.10624E0],"tree_param":{"num_deleted":"0","num_feature":"30","num_nodes":"3","size_leaf_vector":"0"}},{"base_weights":[-1.9463755E-3,-8.500786E-2,8.61629E-2],"categories":[],"categories_nodes":[],"categories_segments":[],"categories_sizes":[],"default_left":[1,0,0],"id":105,"left_children":[1,-1,-1],"loss_changes":[3.2057855E-2,0E0,0E0],"parents":[2147483647,0,0],"right_children":[2,-1,-1],"split_conditions":[2.6545E-2,-2.550236E-2,2.5848871E-2],"split_indices":[16,0,0],"split_type":[0,0,0],"sum_hessian":[2.3795688E0,1.2429898E0,1.136579E0],"tree_param":{"num_deleted":"0","num_feature":"30","num_nodes":"3","size_leaf_vector":"0"}},{"base_weights":[-1.2516913E-3,8.130502E-2,-9.735096E-2],"categories":[],"categories_nodes":[],"categories_segments":[],"categories_sizes":[],"default_left":[1,0,0],"id":106,"left_children":[1,-1,-1],"loss_changes":[3.4689844E-2,0E0,0E0],"parents":[2147483647,0,0],"right_children":[2,-1,-1],"split_conditions":[4.9230002E-2,2.4391508E-2,-2.920529E-2],"split_indices":[7,0,0],"split_type":[0,0,0],"sum_hessian":[2.3748345E0,1.360235E0,1.0145994E0],"tree_param":{"num_deleted":"0","num_feature":"30","num_nodes":"3","size_leaf_vector":"0"}},{"base_weights":[-2.306761E-3,-8.206599E-2,8.641964E-2],"categories":[],"categories_nodes":[],"categories_segments":[],"categories_sizes":[],"default_left":[1,0,0],"id":107,"left_children":[1,-1,-1],"loss_changes":[3.0895287E-2,0E0,0E0],"parents":[2147483647,0,0],"right_children":[2,-1,-1],"split_conditions":[1.7985001E-1,-2.46198E-2,2.5925893E-2],"split_indices":[8,0,0],"split_type":[0,0,0],"sum_hessian":[2.3635743E0,1.2842156E0,1.0793588E0],"tree_param":{"num_deleted":"0","num_feature":"30","num_nodes":"3","size_leaf_vector":"0"}},{"base_weights":[-1.2172464E-3,7.985476E-2,-9.3038045E-2],"categories":[],"categories_nodes":[],"categories_segments":[],"categories_sizes":[],"default_left":[1,0,0],"id":108,"left_children":[1,-1,-1],"loss_changes":[3.243019E-2,0E0,0E0],"parents":[2147483647,0,0],"right_children":[2,-1,-1],"split_conditions":[1.275E-2,2.3956427E-2,-2.7911415E-2],"split_indices":[17,0,0],"split_type":[0,0,0],"sum_hessian":[2.358455E0,1.3217512E0,1.0367038E0],"tree_param":{"num_deleted":"0","num_feature":"30","num_nodes":"3","size_leaf_vector":"0"}},{"base_weights":[-2.0285894E-3,8.326943E-2,-9.029561E-2],"categories":[],"categories_nodes":[],"categories_segments":[],"categories_sizes":[],"default_left":[1,0,0],"id":109,"left_children":[1,-1,-1],"loss_changes":[3.274781E-2,0E0,0E0],"parents":[2147483647,0,0],"right_children":[2,-1,-1],"split_conditions":[2.5724998E1,2.498083E-2,-2.7088685E-2],"split_indices":[21,0,0],"split_type":[0,0,0],"sum_hessian":[2.3509016E0,1.2243518E0,1.1265497E0],"tree_param":{"num_deleted":"0","num_feature":"30","num_nodes":"3","size_leaf_vector":"0"}},{"base_weights":[-2.0475409E-3,-8.065195E-2,8.1826024E-2],"categories":[],"categories_nodes":[],"categories_segments":[],"categories_sizes":[],"default_left":[1,0,0],"id":110,"left_children":[1,-1,-1],"loss_changes":[2.8628083E-2,0E0,0E0],"parents":[2147483647,0,0],"right_children":[2,-1,-1],"split_conditions":[2.6545E-2,-2.4195585E-2,2.4547808E-2],"split_indices":[16,0,0],"split_type":[0,0,0],"sum_hessian":[2.3413038E0,1.2284441E0,1.1128596E0],"tree_param":{"num_deleted":"0","num_feature":"30","num_nodes":"3","size_leaf_vector":"0"}},{"base_weights":[-1.3204161E-3,7.718113E-2,-9.213196E-2],"categories":[],"categories_nodes":[],"categories_segments":[],"categories_sizes":[],"default_left":[1,0,0],"id":111,"left_children":[1,-1,-1],"loss_changes":[3.0900637E-2,0E0,0E0],"parents":[2147483647,0,0],"right_children":[2,-1,-1],"split_conditions":[4.9230002E-2,2.315434E-2,-2.7639588E-2],"split_indices":[7,0,0],"split_type":[0,0,0],"sum_hessian":[2.337116E0,1.3340229E0,1.0030931E0],"tree_param":{"num_deleted":"0","num_feature":"30","num_nodes":"3","size_leaf_vector":"0"}},{"base_weights":[-2.2721107E-3,8.456481E-2,-7.841718E-2],"categories":[],"categories_nodes":[],"categories_segments":[],"categories_sizes":[],"default_left":[1,0,0],"id":112,"left_children":[1,-1,-1],"loss_changes":[2.8629985E-2,0E0,0E0],"parents":[2147483647,0,0],"right_children":[2,-1,-1],"split_conditions":[1.0205E2,2.5369445E-2,-2.3525156E-2],"split_indices":[22,0,0],"split_type":[0,0,0],"sum_hessian":[2.326977E0,1.0355015E0,1.2914755E0],"tree_param":{"num_deleted":"0","num_feature":"30","num_nodes":"3","size_leaf_vector":"0"}},{"base_weights":[-1.0273564E-3,-8.78257E-2,7.504629E-2],"categories":[],"categories_nodes":[],"categories_segments":[],"categories_sizes":[],"default_left":[1,0,0],"id":113,"left_children":[1,-1,-1],"loss_changes":[2.8495733E-2,0E0,0E0],"parents":[2147483647,0,0],"right_children":[2,-1,-1],"split_conditions":[1.767E-2,-2.6347712E-2,2.2513889E-2],"split_indices":[15,0,0],"split_type":[0,0,0],"sum_hessian":[2.3173583E0,1.010228E0,1.3071302E0],"tree_param":{"num_deleted":"0","num_feature":"30","num_nodes":"3","size_leaf_vector":"0"}},{"base_weights":[-1.8717576E-3,7.851762E-2,-9.222366E-2],"categories":[],"categories_nodes":[],"categories_segments":[],"categories_sizes":[],"default_left":[1,0,0],"id":114,"left_children":[1,-1,-1],"loss_changes":[3.1299077E-2,0E0,0E0],"parents":[2147483647,0,0],"right_children":[2,-1,-1],"split_conditions":[1.275E-2,2.3555288E-2,-2.76671E-2],"split_indices":[17,0,0],"split_type":[0,0,0],"sum_hessian":[2.3122387E0,1.2928885E0,1.0193502E0],"tree_param":{"num_deleted":"0","num_feature":"30","num_nodes":"3","size_leaf_vector":"0"}},{"base_weights":[-2.5517896E-3,7.7246785E-2,-8.77634E-2],"categories":[],"categories_nodes":[],"categories_segments":[],"categories_sizes":[],"default_left":[1,0,0],"id":115,"left_children":[1,-1,-1],"loss_changes":[2.9252542E-2,0E0,0E0],"parents":[2147483647,0,0],"right_children":[2,-1,-1],"split_conditions":[2.8280002E-1,2.3174036E-2,-2.632902E-2],"split_indices":[28,0,0],"split_type":[0,0,0],"sum_hessian":[2.3049822E0,1.2385664E0,1.0664158E0],"tree_param":{"num_deleted":"0","num_feature":"30","num_nodes":"3","size_leaf_vector":"0"}},{"base_weights":[-2.742971E-3,-7.8041695E-2,8.1618816E-2],"categories":[],"categories_nodes":[],"categories_segments":[],"categories_sizes":[],"default_left":[1,0,0],"id":116,"left_children":[1,-1,-1],"loss_changes":[2.731011E-2,0E0,0E0],"parents":[2147483647,0,0],"right_children":[2,-1,-1],"split_conditions":[1.7985001E-1,-2.3412509E-2,2.4485646E-2],"split_indices":[8,0,0],"split_type":[0,0,0],"sum_hessian":[2.296495E0,1.253012E0,1.0434831E0],"tree_param":{"num_deleted":"0","num_feature":"30","num_nodes":"3","size_leaf_vector":"0"}},{"base_weights":[-1.5872144E-3,7.367745E-2,-8.618322E-2],"categories":[],"categories_nodes":[],"categories_segments":[],"categories_sizes":[],"default_left":[1,0,0],"id":117,"left_children":[1,-1,-1],"loss_changes":[2.7310286E-2,0E0,0E0],"parents":[2147483647,0,0],"right_children":[2,-1,-1],"split_conditions":[9.9665E-2,2.2103235E-2,-2.5854968E-2],"split_indices":[4,0,0],"split_type":[0,0,0],"sum_hessian":[2.29201E0,1.2811999E0,1.0108103E0],"tree_param":{"num_deleted":"0","num_feature":"30","num_nodes":"3","size_leaf_vector":"0"}},{"base_weights":[-2.249755E-3,7.771338E-2,-8.549082E-2],"categories":[],"categories_nodes":[],"categories_segments":[],"categories_sizes":[],"default_left":[1,0,0],"id":118,"left_children":[1,-1,-1],"loss_changes":[2.851689E-2,0E0,0E0],"parents":[2147483647,0,0],"right_children":[2,-1,-1],"split_conditions":[2.5724998E1,2.3314014E-2,-2.5647247E-2],"split_indices":[21,0,0],"split_type":[0,0,0],"sum_hessian":[2.2861176E0,1.1998868E0,1.0862308E0],"tree_param":{"num_deleted":"0","num_feature":"30","num_nodes":"3","size_leaf_vector":"0"}},{"base_weights":[-2.2846656E-3,8.2188025E-2,-7.615747E-2],"categories":[],"categories_nodes":[],"categories_segments":[],"categories_sizes":[],"default_left":[1,0,0],"id":119,"left_children":[1,-1,-1],"loss_changes":[2.6712824E-2,0E0,0E0],"parents":[2147483647,0,0],"right_children":[2,-1,-1],"split_conditions":[1.0205E2,2.465641E-2,-2.2847243E-2],"split_indices":[22,0,0],"split_type":[0,0,0],"sum_hessian":[2.2776961E0,1.0100987E0,1.2675973E0],"tree_param":{"num_deleted":"0","num_feature":"30","num_nodes":"3","size_leaf_vector":"0"}},{"base_weights":[-1.0392617E-3,7.189561E-2,-8.288165E-2],"categories":[],"categories_nodes":[],"categories_segments":[],"categories_sizes":[],"default_left":[1,0,0],"id":120,"left_children":[1,-1,-1],"loss_changes":[2.5470423E-2,0E0,0E0],"parents":[2147483647,0,0],"right_children":[2,-1,-1],"split_conditions":[1.275E-2,2.1568682E-2,-2.4864497E-2],"split_indices":[17,0,0],"split_type":[0,0,0],"sum_hessian":[2.2687318E0,1.2639146E0,1.0048172E0],"tree_param":{"num_deleted":"0","num_feature":"30","num_nodes":"3","size_leaf_vector":"0"}},{"base_weights":[-1.7337907E-3,-8.125536E-2,8.3381064E-2],"categories":[],"categories_nodes":[],"categories_segments":[],"categories_sizes":[],"default_left":[1,0,0],"id":121,"left_children":[1,-1,-1],"loss_changes":[2.8859667E-2,0E0,0E0],"parents":[2147483647,0,0],"right_children":[2,-1,-1],"split_conditions":[2.6545E-2,-2.437661E-2,2.501432E-2],"split_indices":[16,0,0],"split_type":[0,0,0],"sum_hessian":[2.2628527E0,1.1933073E0,1.0695453E0],"tree_param":{"num_deleted":"0","num_feature":"30","num_nodes":"3","size_leaf_vector":"0"}},{"base_weights":[-1.0099112E-3,7.1841836E-2,-7.942502E-2],"categories":[],"categories_nodes":[],"categories_segments":[],"categories_sizes":[],"default_left":[1,0,0],"id":122,"left_children":[1,-1,-1],"loss_changes":[2.4320576E-2,0E0,0E0],"parents":[2147483647,0,0],"right_children":[2,-1,-1],"split_conditions":[2.8280002E-1,2.1552552E-2,-2.3827508E-2],"split_indices":[28,0,0],"split_type":[0,0,0],"sum_hessian":[2.2584605E0,1.2142164E0,1.0442442E0],"tree_param":{"num_deleted":"0","num_feature":"30","num_nodes":"3","size_leaf_vector":"0"}},{"base_weights":[-1.4029818E-3,-7.2872825E-2,7.8243606E-2],"categories":[],"categories_nodes":[],"categories_segments":[],"categories_sizes":[],"default_left":[1,0,0],"id":123,"left_children":[1,-1,-1],"loss_changes":[2.4209153E-2,0E0,0E0],"parents":[2147483647,0,0],"right_children":[2,-1,-1],"split_conditions":[1.7985001E-1,-2.1861847E-2,2.3473082E-2],"split_indices":[8,0,0],"split_type":[0,0,0],"sum_hessian":[2.2512739E0,1.2313687E0,1.0199052E0],"tree_param":{"num_deleted":"0","num_feature":"30","num_nodes":"3","size_leaf_vector":"0"}},{"base_weights":[-4.788409E-4,6.970923E-2,-7.908851E-2],"categories":[],"categories_nodes":[],"categories_segments":[],"categories_sizes":[],"default_left":[1,0,0],"id":124,"left_children":[1,-1,-1],"loss_changes":[2.3429923E-2,0E0,0E0],"parents":[2147483647,0,0],"right_children":[2,-1,-1],"split_conditions":[9.9309996E-2,2.0912768E-2,-2.3726555E-2],"split_indices":[4,0,0],"split_type":[0,0,0],"sum_hessian":[2.2472773E0,1.2470497E0,1.0002277E0],"tree_param":{"num_deleted":"0","num_feature":"30","num_nodes":"3","size_leaf_vector":"0"}},{"base_weights":[-1.1981966E-3,7.9013765E-2,-7.856296E-2],"categories":[],"categories_nodes":[],"categories_segments":[],"categories_sizes":[],"default_left":[1,0,0],"id":125,"left_children":[1,-1,-1],"loss_changes":[2.6327578E-2,0E0,0E0],"parents":[2147483647,0,0],"right_children":[2,-1,-1],"split_conditions":[1.8785E1,2.370413E-2,-2.356889E-2],"split_indices":[1,0,0],"split_type":[0,0,0],"sum_hessian":[2.2422473E0,1.0904016E0,1.1518456E0],"tree_param":{"num_deleted":"0","num_feature":"30","num_nodes":"3","size_leaf_vector":"0"}},{"base_weights":[-7.9036865E-4,7.371258E-2,-7.865086E-2],"categories":[],"categories_nodes":[],"categories_segments":[],"categories_sizes":[],"default_left":[1,0,0],"id":126,"left_children":[1,-1,-1],"loss_changes":[2.456027E-2,0E0,0E0],"parents":[2147483647,0,0],"right_children":[2,-1,-1],"split_conditions":[7.8415E2,2.2113774E-2,-2.359526E-2],"split_indices":[23,0,0],"split_type":[0,0,0],"sum_hessian":[2.2344844E0,1.1690861E0,1.0653985E0],"tree_param":{"num_deleted":"0","num_feature":"30","num_nodes":"3","size_leaf_vector":"0"}},{"base_weights":[-1.0078242E-3,6.853034E-2,-7.790488E-2],"categories":[],"categories_nodes":[],"categories_segments":[],"categories_sizes":[],"default_left":[1,0,0],"id":127,"left_children":[1,-1,-1],"loss_changes":[2.2590762E-2,0E0,0E0],"parents":[2147483647,0,0],"right_children":[2,-1,-1],"split_conditions":[1.2685E-2,2.0559104E-2,-2.3371466E-2],"split_indices":[17,0,0],"split_type":[0,0,0],"sum_hessian":[2.2262971E0,1.2262241E0,1.000073E0],"tree_param":{"num_deleted":"0","num_feature":"30","num_nodes":"3","size_leaf_vector":"0"}}]},"name":"gbtree"},"learner_model_param":{"base_score":"5E-1","num_class":"0","num_feature":"30","num_target":"1"},"objective":{"name":"binary:logistic","reg_loss_param":{"scale_pos_weight":"1"}}},"version":[1,6,2]}